{"features": ["elbow_angle", "rep_speed", "symmetry"], "classes": ["correct", "incorrect"], "trees": [{"children_left": [1, 2, -1, 4, 5, 6, -1, -1, -1, -1, -1], "children_right": [10, 3, -1, 9, 8, 7, -1, -1, -1, -1, -1], "feature": [0, 1, -2, 2, 2, 2, -2, -2, -2, -2, -2], "threshold": [47.560001373291016, 1.5299999713897705, -2.0, 66.59999942779541, 2.8550000190734863, 2.4149999618530273, -2.0, -2.0, -2.0, -2.0, -2.0], "value": [[[38.0, 21.0]], [[38.0, 6.0]], [[0.0, 3.0]], [[38.0, 3.0]], [[38.0, 1.0]], [[9.0, 1.0]], [[9.0, 0.0]], [[0.0, 1.0]], [[29.0, 0.0]], [[0.0, 2.0]], [[0.0, 15.0]]]}, {"children_left": [1, 2, -1, 4, -1, 6, -1, 8, -1, -1, 11, -1, -1], "children_right": [10, 3, -1, 5, -1, 7, -1, 9, -1, -1, 12, -1, -1], "feature": [2, 2, -2, 2, -2, 2, -2, 1, -2, -2, 0, -2, -2], "threshold": [13.71500015258789, 1.0350000262260437, -2.0, 10.21999979019165, -2.0, 11.62000036239624, -2.0, 6.364999890327454, -2.0, -2.0, 41.73499870300293, -2.0, -2.0], "value": [[[35.0, 24.0]], [[32.0, 5.0]], [[0.0, 1.0]], [[32.0, 4.0]], [[21.0, 0.0]], [[11.0, 4.0]], [[0.0, 3.0]], [[11.0, 1.0]], [[11.0, 0.0]], [[0.0, 1.0]], [[3.0, 19.0]], [[3.0, 0.0]], [[0.0, 19.0]]]}, {"children_left": [1, -1, 3, 4, 5, -1, -1, 8, 9, 10, -1, 12, -1, -1, -1, -1, 17, 18, -1, 20, -1, 22, -1, -1, -1], "children_right": [2, -1, 16, 7, 6, -1, -1, 15, 14, 11, -1, 13, -1, -1, -1, -1, 24, 19, -1, 21, -1, 23, -1, -1, -1], "feature": [1, -2, 1, 1, 0, -2, -2, 2, 2, 2, -2, 1, -2, -2, -2, -2, 0, 1, -2, 2, -2, 0, -2, -2, -2], "threshold": [1.5299999713897705, -2.0, 2.0649999380111694, 1.5950000286102295, 38.02499961853027, -2.0, -2.0, 5.019999980926514, 3.674999952316284, 2.4149999618530273, -2.0, 1.6899999976158142, -2.0, -2.0, -2.0, -2.0, 45.119998931884766, 3.0649999380111694, -2.0, 14.559999942779541, -2.0, 38.82000160217285, -2.0, -2.0, -2.0], "value": [[[28.0, 31.0]], [[0.0, 10.0]], [[28.0, 21.0]], [[24.0, 7.0]], [[6.0, 4.0]], [[6.0, 0.0]], [[0.0, 4.0]], [[18.0, 3.0]], [[8.0, 3.0]], [[8.0, 1.0]], [[6.0, 0.0]], [[2.0, 1.0]], [[2.0, 0.0]], [[0.0, 1.0]], [[0.0, 2.0]], [[10.0, 0.0]], [[4.0, 14.0]], [[4.0, 2.0]], [[0.0, 1.0]], [[4.0, 1.0]], [[2.0, 0.0]], [[2.0, 1.0]], [[2.0, 0.0]], [[0.0, 1.0]], [[0.0, 12.0]]]}, {"children_left": [1, 2, 3, 4, 5, -1, 7, -1, -1, -1, 11, -1, 13, 14, -1, 16, -1, 18, -1, -1, -1, -1, 23, 24, -1, -1, -1], "children_right": [22, 21, 10, 9, 6, -1, 8, -1, -1, -1, 12, -1, 20, 15, -1, 17, -1, 19, -1, -1, -1, -1, 26, 25, -1, -1, -1], "feature": [2, 1, 0, 0, 1, -2, 0, -2, -2, -2, 1, -2, 2, 0, -2, 1, -2, 2, -2, -2, -2, -2, 2, 0, -2, -2, -2], "threshold": [13.725000381469727, 6.075000047683716, 38.470001220703125, 35.375, 1.75, -2.0, 34.885000228881836, -2.0, -2.0, -2.0, 1.5399999618530273, -2.0, 10.545000076293945, 39.51499938964844, -2.0, 2.4550000429153442, -2.0, 8.860000133514404, -2.0, -2.0, -2.0, -2.0, 17.304999351501465, 39.079999923706055, -2.0, -2.0, -2.0], "value": [[[29.0, 30.0]], [[28.0, 14.0]], [[28.0, 9.0]], [[20.0, 2.0]], [[9.0, 2.0]], [[8.0, 0.0]], [[1.0, 2.0]], [[1.0, 0.0]], [[0.0, 2.0]], [[11.0, 0.0]], [[8.0, 7.0]], [[0.0, 4.0]], [[8.0, 3.0]], [[8.0, 2.0]], [[0.0, 1.0]], [[8.0, 1.0]], [[7.0, 0.0]], [[1.0, 1.0]], [[0.0, 1.0]], [[1.0, 0.0]], [[0.0, 1.0]], [[0.0, 5.0]], [[1.0, 16.0]], [[1.0, 3.0]], [[1.0, 0.0]], [[0.0, 3.0]], [[0.0, 13.0]]]}, {"children_left": [1, 2, -1, 4, -1, 6, 7, -1, 9, -1, 11, 12, -1, -1, -1, -1, -1], "children_right": [16, 3, -1, 5, -1, 15, 8, -1, 10, -1, 14, 13, -1, -1, -1, -1, -1], "feature": [2, 1, -2, 0, -2, 0, 0, -2, 0, -2, 2, 2, -2, -2, -2, -2, -2], "threshold": [14.005000114440918, 1.5299999713897705, -2.0, 21.90500020980835, -2.0, 51.1150016784668, 34.959999084472656, -2.0, 35.44000053405762, -2.0, 4.4649999141693115, 3.399999976158142, -2.0, -2.0, -2.0, -2.0, -2.0], "value": [[[34.0, 25.0]], [[34.0, 9.0]], [[0.0, 4.0]], [[34.0, 5.0]], [[0.0, 2.0]], [[34.0, 3.0]], [[34.0, 2.0]], [[15.0, 0.0]], [[19.0, 2.0]], [[0.0, 1.0]], [[19.0, 1.0]], [[6.0, 1.0]], [[6.0, 0.0]], [[0.0, 1.0]], [[13.0, 0.0]], [[0.0, 1.0]], [[0.0, 16.0]]]}, {"children_left": [1, 2, -1, 4, 5, 6, 7, -1, 9, -1, 11, -1, -1, 14, 15, -1, 17, -1, 19, 20, -1, -1, -1, -1, -1, -1, 27, -1, -1], "children_right": [26, 3, -1, 25, 24, 13, 8, -1, 10, -1, 12, -1, -1, 23, 16, -1, 18, -1, 22, 21, -1, -1, -1, -1, -1, -1, 28, -1, -1], "feature": [1, 1, -2, 1, 1, 1, 2, -2, 1, -2, 0, -2, -2, 2, 1, -2, 0, -2, 0, 0, -2, -2, -2, -2, -2, -2, 0, -2, -2], "threshold": [3.980000138282776, 1.5399999618530273, -2.0, 3.0649999380111694, 2.2649999856948853, 1.5950000286102295, 4.514999866485596, -2.0, 1.574999988079071, -2.0, 38.43000030517578, -2.0, -2.0, 27.539999961853027, 1.715000033378601, -2.0, 23.660000324249268, -2.0, 37.0049991607666, 34.85000038146973, -2.0, -2.0, -2.0, -2.0, -2.0, -2.0, 41.58999824523926, -2.0, -2.0], "value": [[[33.0, 26.0]], [[32.0, 15.0]], [[0.0, 6.0]], [[32.0, 9.0]], [[26.0, 9.0]], [[26.0, 8.0]], [[7.0, 4.0]], [[0.0, 2.0]], [[7.0, 2.0]], [[3.0, 0.0]], [[4.0, 2.0]], [[4.0, 0.0]], [[0.0, 2.0]], [[19.0, 4.0]], [[19.0, 3.0]], [[12.0, 0.0]], [[7.0, 3.0]], [[0.0, 2.0]], [[7.0, 1.0]], [[2.0, 1.0]], [[2.0, 0.0]], [[0.0, 1.0]], [[5.0, 0.0]], [[0.0, 1.0]], [[0.0, 1.0]], [[6.0, 0.0]], [[1.0, 11.0]], [[1.0, 0.0]], [[0.0, 11.0]]]}, {"children_left": [1, -1, 3, 4, 5, -1, 7, 8, 9, 10, -1, -1, -1, -1, -1, 16, -1, -1, -1], "children_right": [2, -1, 18, 15, 6, -1, 14, 13, 12, 11, -1, -1, -1, -1, -1, 17, -1, -1, -1], "feature": [1, -2, 2, 2, 1, -2, 2, 1, 1, 2, -2, -2, -2, -2, -2, 0, -2, -2, -2], "threshold": [1.5299999713897705, -2.0, 17.769999504089355, 13.725000381469727, 1.715000033378601, -2.0, 5.71999979019165, 1.8050000071525574, 1.75, 2.8149998784065247, -2.0, -2.0, -2.0, -2.0, -2.0, 39.22500038146973, -2.0, -2.0, -2.0], "value": [[[30.0, 29.0]], [[0.0, 14.0]], [[30.0, 15.0]], [[30.0, 6.0]], [[26.0, 3.0]], [[19.0, 0.0]], [[7.0, 3.0]], [[2.0, 3.0]], [[1.0, 3.0]], [[1.0, 1.0]], [[1.0, 0.0]], [[0.0, 1.0]], [[0.0, 2.0]], [[1.0, 0.0]], [[5.0, 0.0]], [[4.0, 3.0]], [[4.0, 0.0]], [[0.0, 3.0]], [[0.0, 9.0]]]}, {"children_left": [1, 2, -1, 4, -1, 6, -1, -1, 9, 10, 11, 12, -1, -1, 15, -1, 17, -1, -1, -1, -1], "children_right": [8, 3, -1, 5, -1, 7, -1, -1, 20, 19, 14, 13, -1, -1, 16, -1, 18, -1, -1, -1, -1], "feature": [0, 1, -2, 2, -2, 1, -2, -2, 0, 2, 2, 1, -2, -2, 2, -2, 1, -2, -2, -2, -2], "threshold": [38.32499885559082, 1.7199999690055847, -2.0, 7.800000190734863, -2.0, 3.1449999809265137, -2.0, -2.0, 47.51500129699707, 14.839999675750732, 6.269999980926514, 1.625, -2.0, -2.0, 10.894999980926514, -2.0, 1.6449999809265137, -2.0, -2.0, -2.0, -2.0], "value": [[[28.0, 31.0]], [[23.0, 2.0]], [[18.0, 0.0]], [[5.0, 2.0]], [[0.0, 1.0]], [[5.0, 1.0]], [[0.0, 1.0]], [[5.0, 0.0]], [[5.0, 29.0]], [[5.0, 6.0]], [[5.0, 3.0]], [[1.0, 2.0]], [[0.0, 2.0]], [[1.0, 0.0]], [[4.0, 1.0]], [[3.0, 0.0]], [[1.0, 1.0]], [[0.0, 1.0]], [[1.0, 0.0]], [[0.0, 3.0]], [[0.0, 23.0]]]}, {"children_left": [1, 2, -1, 4, 5, -1, 7, -1, 9, 10, -1, -1, -1, -1, -1], "children_right": [14, 3, -1, 13, 6, -1, 8, -1, 12, 11, -1, -1, -1, -1, -1], "feature": [2, 1, -2, 0, 0, -2, 1, -2, 1, 2, -2, -2, -2, -2, -2], "threshold": [17.46500015258789, 1.5399999618530273, -2.0, 45.130001068115234, 22.22499990463257, -2.0, 1.7350000143051147, -2.0, 1.8050000071525574, 8.28499984741211, -2.0, -2.0, -2.0, -2.0, -2.0], "value": [[[31.0, 28.0]], [[31.0, 12.0]], [[0.0, 4.0]], [[31.0, 8.0]], [[31.0, 3.0]], [[0.0, 1.0]], [[31.0, 2.0]], [[21.0, 0.0]], [[10.0, 2.0]], [[2.0, 2.0]], [[0.0, 2.0]], [[2.0, 0.0]], [[8.0, 0.0]], [[0.0, 5.0]], [[0.0, 16.0]]]}, {"children_left": [1, 2, -1, 4, -1, 6, -1, 8, 9, -1, 11, -1, -1, -1, -1], "children_right": [14, 3, -1, 5, -1, 7, -1, 13, 10, -1, 12, -1, -1, -1, -1], "feature": [0, 1, -2, 0, -2, 0, -2, 2, 0, -2, 0, -2, -2, -2, -2], "threshold": [47.560001373291016, 1.5450000166893005, -2.0, 34.959999084472656, -2.0, 35.584999084472656, -2.0, 17.769999504089355, 38.56999969482422, -2.0, 40.69500160217285, -2.0, -2.0, -2.0, -2.0], "value": [[[39.0, 20.0]], [[39.0, 9.0]], [[0.0, 3.0]], [[39.0, 6.0]], [[17.0, 0.0]], [[22.0, 6.0]], [[0.0, 2.0]], [[22.0, 4.0]], [[22.0, 2.0]], [[11.0, 0.0]], [[11.0, 2.0]], [[0.0, 2.0]], [[11.0, 0.0]], [[0.0, 2.0]], [[0.0, 11.0]]]}, {"children_left": [1, 2, 3, -1, 5, -1, -1, -1, -1], "children_right": [8, 7, 4, -1, 6, -1, -1, -1, -1], "feature": [0, 2, 0, -2, 2, -2, -2, -2, -2], "threshold": [47.560001373291016, 17.769999504089355, 38.30500030517578, -2.0, 1.4900000095367432, -2.0, -2.0, -2.0, -2.0], "value": [[[36.0, 23.0]], [[36.0, 4.0]], [[36.0, 1.0]], [[25.0, 0.0]], [[11.0, 1.0]], [[0.0, 1.0]], [[11.0, 0.0]], [[0.0, 3.0]], [[0.0, 19.0]]]}, {"children_left": [1, 2, -1, 4, -1, 6, 7, 8, 9, -1, 11, -1, -1, -1, -1, -1, 17, -1, -1], "children_right": [16, 3, -1, 5, -1, 15, 14, 13, 10, -1, 12, -1, -1, -1, -1, -1, 18, -1, -1], "feature": [2, 1, -2, 0, -2, 1, 2, 2, 2, -2, 2, -2, -2, -2, -2, -2, 0, -2, -2], "threshold": [14.005000114440918, 1.5299999713897705, -2.0, 22.294999599456787, -2.0, 6.5249998569488525, 4.144999980926514, 3.399999976158142, 2.4149999618530273, -2.0, 2.899999976158142, -2.0, -2.0, -2.0, -2.0, -2.0, 39.22500038146973, -2.0, -2.0], "value": [[[37.0, 22.0]], [[35.0, 8.0]], [[0.0, 4.0]], [[35.0, 4.0]], [[0.0, 1.0]], [[35.0, 3.0]], [[35.0, 2.0]], [[9.0, 2.0]], [[9.0, 1.0]], [[7.0, 0.0]], [[2.0, 1.0]], [[0.0, 1.0]], [[2.0, 0.0]], [[0.0, 1.0]], [[26.0, 0.0]], [[0.0, 1.0]], [[2.0, 14.0]], [[2.0, 0.0]], [[0.0, 14.0]]]}, {"children_left": [1, 2, 3, 4, -1, 6, -1, -1, 9, 10, -1, -1, -1, -1, -1], "children_right": [14, 13, 8, 5, -1, 7, -1, -1, 12, 11, -1, -1, -1, -1, -1], "feature": [2, 0, 0, 1, -2, 1, -2, -2, 1, 1, -2, -2, -2, -2, -2], "threshold": [17.769999504089355, 48.005001068115234, 35.22999954223633, 1.7099999785423279, -2.0, 2.8600000143051147, -2.0, -2.0, 1.590000033378601, 1.5699999928474426, -2.0, -2.0, -2.0, -2.0, -2.0], "value": [[[35.0, 24.0]], [[35.0, 10.0]], [[35.0, 4.0]], [[10.0, 3.0]], [[9.0, 0.0]], [[1.0, 3.0]], [[0.0, 3.0]], [[1.0, 0.0]], [[25.0, 1.0]], [[8.0, 1.0]], [[8.0, 0.0]], [[0.0, 1.0]], [[17.0, 0.0]], [[0.0, 6.0]], [[0.0, 14.0]]]}, {"children_left": [1, 2, 3, -1, 5, -1, -1, 8, -1, 10, 11, -1, -1, -1, -1], "children_right": [14, 7, 4, -1, 6, -1, -1, 9, -1, 13, 12, -1, -1, -1, -1], "feature": [2, 0, 1, -2, 0, -2, -2, 1, -2, 2, 0, -2, -2, -2, -2], "threshold": [18.02999973297119, 38.30500030517578, 1.75, -2.0, 36.41499900817871, -2.0, -2.0, 1.625, -2.0, 9.929999828338623, 51.1150016784668, -2.0, -2.0, -2.0, -2.0], "value": [[[23.0, 36.0]], [[23.0, 20.0]], [[19.0, 2.0]], [[18.0, 0.0]], [[1.0, 2.0]], [[0.0, 2.0]], [[1.0, 0.0]], [[4.0, 18.0]], [[0.0, 11.0]], [[4.0, 7.0]], [[4.0, 2.0]], [[4.0, 0.0]], [[0.0, 2.0]], [[0.0, 5.0]], [[0.0, 16.0]]]}, {"children_left": [1, -1, 3, -1, 5, -1, -1], "children_right": [2, -1, 4, -1, 6, -1, -1], "feature": [1, -2, 1, -2, 0, -2, -2], "threshold": [1.5299999713897705, -2.0, 2.0649999380111694, -2.0, 44.685001373291016, -2.0, -2.0], "value": [[[37.0, 22.0]], [[0.0, 8.0]], [[37.0, 14.0]], [[30.0, 0.0]], [[7.0, 14.0]], [[7.0, 0.0]], [[0.0, 14.0]]]}, {"children_left": [1, -1, 3, 4, 5, 6, -1, 8, -1, -1, 11, -1, 13, -1, -1, -1, -1], "children_right": [2, -1, 16, 15, 10, 7, -1, 9, -1, -1, 12, -1, 14, -1, -1, -1, -1], "feature": [1, -2, 2, 0, 2, 0, -2, 2, -2, -2, 2, -2, 0, -2, -2, -2, -2], "threshold": [1.5299999713897705, -2.0, 17.769999504089355, 48.005001068115234, 4.144999980926514, 33.71999931335449, -2.0, 2.4149999618530273, -2.0, -2.0, 14.519999980926514, -2.0, 39.22500038146973, -2.0, -2.0, -2.0, -2.0], "value": [[[30.0, 29.0]], [[0.0, 13.0]], [[30.0, 16.0]], [[30.0, 6.0]], [[30.0, 4.0]], [[3.0, 3.0]], [[2.0, 0.0]], [[1.0, 3.0]], [[1.0, 0.0]], [[0.0, 3.0]], [[27.0, 1.0]], [[22.0, 0.0]], [[5.0, 1.0]], [[5.0, 0.0]], [[0.0, 1.0]], [[0.0, 2.0]], [[0.0, 10.0]]]}, {"children_left": [1, 2, 3, 4, -1, 6, -1, 8, -1, -1, -1, 12, -1, 14, -1, -1, 17, 18, -1, -1, -1], "children_right": [16, 11, 10, 5, -1, 7, -1, 9, -1, -1, -1, 13, -1, 15, -1, -1, 20, 19, -1, -1, -1], "feature": [0, 2, 2, 2, -2, 1, -2, 2, -2, -2, -2, 1, -2, 1, -2, -2, 0, 0, -2, -2, -2], "threshold": [40.05000114440918, 5.019999980926514, 3.759999990463257, 1.0699999928474426, -2.0, 1.75, -2.0, 2.0899999737739563, -2.0, -2.0, -2.0, 2.0549999475479126, -2.0, 3.1449999809265137, -2.0, -2.0, 47.51500129699707, 46.0049991607666, -2.0, -2.0, -2.0], "value": [[[33.0, 26.0]], [[30.0, 7.0]], [[7.0, 6.0]], [[7.0, 3.0]], [[0.0, 1.0]], [[7.0, 2.0]], [[5.0, 0.0]], [[2.0, 2.0]], [[2.0, 0.0]], [[0.0, 2.0]], [[0.0, 3.0]], [[23.0, 1.0]], [[19.0, 0.0]], [[4.0, 1.0]], [[0.0, 1.0]], [[4.0, 0.0]], [[3.0, 19.0]], [[3.0, 5.0]], [[0.0, 5.0]], [[3.0, 0.0]], [[0.0, 14.0]]]}, {"children_left": [1, 2, -1, 4, -1, -1, 7, 8, -1, -1, -1], "children_right": [6, 3, -1, 5, -1, -1, 10, 9, -1, -1, -1], "feature": [0, 1, -2, 1, -2, -2, 0, 2, -2, -2, -2], "threshold": [40.415000915527344, 1.715000033378601, -2.0, 1.8050000071525574, -2.0, -2.0, 47.704999923706055, 10.255000114440918, -2.0, -2.0, -2.0], "value": [[[35.0, 24.0]], [[32.0, 2.0]], [[27.0, 0.0]], [[5.0, 2.0]], [[0.0, 2.0]], [[5.0, 0.0]], [[3.0, 22.0]], [[3.0, 4.0]], [[3.0, 0.0]], [[0.0, 4.0]], [[0.0, 18.0]]]}, {"children_left": [1, -1, 3, 4, -1, 6, -1, 8, 9, -1, -1, -1, -1], "children_right": [2, -1, 12, 5, -1, 7, -1, 11, 10, -1, -1, -1, -1], "feature": [1, -2, 0, 0, -2, 0, -2, 2, 2, -2, -2, -2, -2], "threshold": [1.5299999713897705, -2.0, 45.119998931884766, 21.90500020980835, -2.0, 38.56999969482422, -2.0, 5.3999998569488525, 2.5899999737739563, -2.0, -2.0, -2.0, -2.0], "value": [[[31.0, 28.0]], [[0.0, 12.0]], [[31.0, 16.0]], [[31.0, 4.0]], [[0.0, 2.0]], [[31.0, 2.0]], [[26.0, 0.0]], [[5.0, 2.0]], [[1.0, 2.0]], [[1.0, 0.0]], [[0.0, 2.0]], [[4.0, 0.0]], [[0.0, 12.0]]]}, {"children_left": [1, 2, 3, -1, 5, 6, -1, -1, -1, 10, 11, 12, -1, -1, -1, 16, 17, -1, 19, -1, -1, -1, 23, -1, 25, -1, 27, -1, -1], "children_right": [22, 9, 4, -1, 8, 7, -1, -1, -1, 15, 14, 13, -1, -1, -1, 21, 18, -1, 20, -1, -1, -1, 24, -1, 26, -1, 28, -1, -1], "feature": [2, 2, 1, -2, 0, 1, -2, -2, -2, 2, 1, 2, -2, -2, -2, 1, 1, -2, 1, -2, -2, -2, 1, -2, 2, -2, 1, -2, -2], "threshold": [14.005000114440918, 2.8550000190734863, 1.5799999833106995, -2.0, 37.385000228881836, 1.75, -2.0, -2.0, -2.0, 8.190000057220459, 1.5850000381469727, 4.4649999141693115, -2.0, -2.0, -2.0, 4.010000109672546, 2.3450000286102295, -2.0, 3.2549999952316284, -2.0, -2.0, -2.0, 2.725000023841858, -2.0, 15.244999885559082, -2.0, 5.625, -2.0, -2.0], "value": [[[36.0, 23.0]], [[34.0, 9.0]], [[4.0, 3.0]], [[0.0, 2.0]], [[4.0, 1.0]], [[1.0, 1.0]], [[1.0, 0.0]], [[0.0, 1.0]], [[3.0, 0.0]], [[30.0, 6.0]], [[18.0, 1.0]], [[2.0, 1.0]], [[0.0, 1.0]], [[2.0, 0.0]], [[16.0, 0.0]], [[12.0, 5.0]], [[12.0, 1.0]], [[9.0, 0.0]], [[3.0, 1.0]], [[0.0, 1.0]], [[3.0, 0.0]], [[0.0, 4.0]], [[2.0, 14.0]], [[0.0, 8.0]], [[2.0, 6.0]], [[0.0, 3.0]], [[2.0, 3.0]], [[2.0, 0.0]], [[0.0, 3.0]]]}, {"children_left": [1, 2, 3, 4, -1, 6, -1, -1, -1, -1, -1], "children_right": [10, 9, 8, 5, -1, 7, -1, -1, -1, -1, -1], "feature": [1, 2, 2, 0, -2, 0, -2, -2, -2, -2, -2], "threshold": [5.434999942779541, 18.389999389648438, 4.144999980926514, 34.85000038146973, -2.0, 39.14999961853027, -2.0, -2.0, -2.0, -2.0, -2.0], "value": [[[34.0, 25.0]], [[34.0, 16.0]], [[34.0, 6.0]], [[10.0, 6.0]], [[9.0, 0.0]], [[1.0, 6.0]], [[0.0, 6.0]], [[1.0, 0.0]], [[24.0, 0.0]], [[0.0, 10.0]], [[0.0, 9.0]]]}, {"children_left": [1, 2, 3, 4, -1, 6, -1, -1, -1, 10, -1, 12, -1, -1, -1], "children_right": [14, 9, 8, 5, -1, 7, -1, -1, -1, 11, -1, 13, -1, -1, -1], "feature": [0, 0, 0, 1, -2, 2, -2, -2, -2, 0, -2, 2, -2, -2, -2], "threshold": [47.44000053405762, 38.470001220703125, 35.22999954223633, 1.75, -2.0, 7.800000190734863, -2.0, -2.0, -2.0, 40.69500160217285, -2.0, 14.779999732971191, -2.0, -2.0, -2.0], "value": [[[37.0, 22.0]], [[37.0, 6.0]], [[33.0, 2.0]], [[14.0, 2.0]], [[11.0, 0.0]], [[3.0, 2.0]], [[0.0, 2.0]], [[3.0, 0.0]], [[19.0, 0.0]], [[4.0, 4.0]], [[0.0, 3.0]], [[4.0, 1.0]], [[4.0, 0.0]], [[0.0, 1.0]], [[0.0, 16.0]]]}, {"children_left": [1, 2, 3, 4, 5, -1, 7, -1, 9, -1, -1, -1, -1, -1, 15, 16, -1, -1, -1], "children_right": [14, 13, 12, 11, 6, -1, 8, -1, 10, -1, -1, -1, -1, -1, 18, 17, -1, -1, -1], "feature": [1, 2, 2, 2, 1, -2, 1, -2, 1, -2, -2, -2, -2, -2, 0, 2, -2, -2, -2], "threshold": [3.9900001287460327, 18.649999618530273, 4.784999847412109, 4.4649999141693115, 1.6100000143051147, -2.0, 1.7300000190734863, -2.0, 1.8050000071525574, -2.0, -2.0, -2.0, -2.0, -2.0, 47.045000076293945, 12.674999713897705, -2.0, -2.0, -2.0], "value": [[[35.0, 24.0]], [[33.0, 13.0]], [[33.0, 6.0]], [[8.0, 6.0]], [[8.0, 4.0]], [[0.0, 3.0]], [[8.0, 1.0]], [[6.0, 0.0]], [[2.0, 1.0]], [[0.0, 1.0]], [[2.0, 0.0]], [[0.0, 2.0]], [[25.0, 0.0]], [[0.0, 7.0]], [[2.0, 11.0]], [[2.0, 2.0]], [[2.0, 0.0]], [[0.0, 2.0]], [[0.0, 9.0]]]}, {"children_left": [1, -1, 3, 4, -1, 6, 7, -1, 9, -1, 11, -1, -1, -1, -1], "children_right": [2, -1, 14, 5, -1, 13, 8, -1, 10, -1, 12, -1, -1, -1, -1], "feature": [1, -2, 2, 2, -2, 0, 2, -2, 0, -2, 2, -2, -2, -2, -2], "threshold": [1.5299999713897705, -2.0, 14.839999675750732, 2.4149999618530273, -2.0, 50.864999771118164, 2.899999976158142, -2.0, 38.39999961853027, -2.0, 6.269999980926514, -2.0, -2.0, -2.0, -2.0], "value": [[[33.0, 26.0]], [[0.0, 12.0]], [[33.0, 14.0]], [[33.0, 5.0]], [[9.0, 0.0]], [[24.0, 5.0]], [[24.0, 2.0]], [[0.0, 1.0]], [[24.0, 1.0]], [[19.0, 0.0]], [[5.0, 1.0]], [[0.0, 1.0]], [[5.0, 0.0]], [[0.0, 3.0]], [[0.0, 9.0]]]}, {"children_left": [1, -1, 3, 4, 5, -1, 7, 8, -1, 10, -1, -1, -1, -1, -1], "children_right": [2, -1, 14, 13, 6, -1, 12, 9, -1, 11, -1, -1, -1, -1, -1], "feature": [1, -2, 2, 0, 0, -2, 0, 1, -2, 2, -2, -2, -2, -2, -2], "threshold": [1.5399999618530273, -2.0, 17.304999351501465, 48.005001068115234, 21.90500020980835, -2.0, 35.22999954223633, 1.7199999690055847, -2.0, 7.800000190734863, -2.0, -2.0, -2.0, -2.0, -2.0], "value": [[[28.0, 31.0]], [[0.0, 10.0]], [[28.0, 21.0]], [[28.0, 12.0]], [[28.0, 5.0]], [[0.0, 3.0]], [[28.0, 2.0]], [[11.0, 2.0]], [[9.0, 0.0]], [[2.0, 2.0]], [[0.0, 2.0]], [[2.0, 0.0]], [[17.0, 0.0]], [[0.0, 7.0]], [[0.0, 9.0]]]}, {"children_left": [1, 2, -1, 4, 5, -1, 7, -1, 9, -1, -1, -1, 13, 14, -1, -1, -1], "children_right": [12, 3, -1, 11, 6, -1, 8, -1, 10, -1, -1, -1, 16, 15, -1, -1, -1], "feature": [0, 1, -2, 2, 0, -2, 0, -2, 0, -2, -2, -2, 0, 0, -2, -2, -2], "threshold": [41.45000076293945, 1.5399999618530273, -2.0, 66.92999935150146, 21.90500020980835, -2.0, 38.404998779296875, -2.0, 38.76999855041504, -2.0, -2.0, -2.0, 45.119998931884766, 43.96999931335449, -2.0, -2.0, -2.0], "value": [[[27.0, 32.0]], [[25.0, 6.0]], [[0.0, 3.0]], [[25.0, 3.0]], [[25.0, 2.0]], [[0.0, 1.0]], [[25.0, 1.0]], [[21.0, 0.0]], [[4.0, 1.0]], [[0.0, 1.0]], [[4.0, 0.0]], [[0.0, 1.0]], [[2.0, 26.0]], [[2.0, 3.0]], [[0.0, 3.0]], [[2.0, 0.0]], [[0.0, 23.0]]]}, {"children_left": [1, 2, -1, 4, 5, -1, 7, -1, 9, -1, -1, 12, -1, 14, -1, 16, -1, -1, -1], "children_right": [18, 3, -1, 11, 6, -1, 8, -1, 10, -1, -1, 13, -1, 15, -1, 17, -1, -1, -1], "feature": [2, 1, -2, 2, 0, -2, 0, -2, 0, -2, -2, 2, -2, 1, -2, 2, -2, -2, -2], "threshold": [17.4399995803833, 1.5299999713897705, -2.0, 8.190000057220459, 21.90500020980835, -2.0, 34.959999084472656, -2.0, 35.385000228881836, -2.0, -2.0, 8.860000133514404, -2.0, 3.9900001287460327, -2.0, 9.929999828338623, -2.0, -2.0, -2.0], "value": [[[30.0, 29.0]], [[30.0, 16.0]], [[0.0, 5.0]], [[30.0, 11.0]], [[18.0, 2.0]], [[0.0, 1.0]], [[18.0, 1.0]], [[9.0, 0.0]], [[9.0, 1.0]], [[0.0, 1.0]], [[9.0, 0.0]], [[12.0, 9.0]], [[0.0, 3.0]], [[12.0, 6.0]], [[10.0, 0.0]], [[2.0, 6.0]], [[2.0, 0.0]], [[0.0, 6.0]], [[0.0, 13.0]]]}, {"children_left": [1, -1, 3, 4, -1, 6, 7, -1, -1, -1, 11, 12, -1, 14, -1, -1, -1], "children_right": [2, -1, 10, 5, -1, 9, 8, -1, -1, -1, 16, 13, -1, 15, -1, -1, -1], "feature": [1, -2, 1, 0, -2, 1, 1, -2, -2, -2, 1, 1, -2, 2, -2, -2, -2], "threshold": [1.5299999713897705, -2.0, 2.1799999475479126, 22.22499990463257, -2.0, 1.5850000381469727, 1.5750000476837158, -2.0, -2.0, -2.0, 5.434999942779541, 3.2549999952316284, -2.0, 15.8100004196167, -2.0, -2.0, -2.0], "value": [[[39.0, 20.0]], [[0.0, 8.0]], [[39.0, 12.0]], [[36.0, 3.0]], [[0.0, 2.0]], [[36.0, 1.0]], [[9.0, 1.0]], [[9.0, 0.0]], [[0.0, 1.0]], [[27.0, 0.0]], [[3.0, 9.0]], [[3.0, 4.0]], [[0.0, 3.0]], [[3.0, 1.0]], [[3.0, 0.0]], [[0.0, 1.0]], [[0.0, 5.0]]]}, {"children_left": [1, 2, 3, 4, -1, 6, 7, -1, -1, -1, 11, -1, -1, -1, -1], "children_right": [14, 13, 10, 5, -1, 9, 8, -1, -1, -1, 12, -1, -1, -1, -1], "feature": [0, 2, 2, 0, -2, 2, 2, -2, -2, -2, 1, -2, -2, -2, -2], "threshold": [47.51500129699707, 17.769999504089355, 14.559999942779541, 22.22499990463257, -2.0, 2.899999976158142, 2.4149999618530273, -2.0, -2.0, -2.0, 5.349999904632568, -2.0, -2.0, -2.0, -2.0], "value": [[[35.0, 24.0]], [[35.0, 7.0]], [[35.0, 4.0]], [[32.0, 2.0]], [[0.0, 1.0]], [[32.0, 1.0]], [[4.0, 1.0]], [[4.0, 0.0]], [[0.0, 1.0]], [[28.0, 0.0]], [[3.0, 2.0]], [[3.0, 0.0]], [[0.0, 2.0]], [[0.0, 3.0]], [[0.0, 17.0]]]}, {"children_left": [1, -1, 3, 4, 5, -1, 7, -1, 9, -1, -1, 12, 13, -1, 15, -1, -1, 18, 19, -1, -1, -1, 23, -1, -1], "children_right": [2, -1, 22, 11, 6, -1, 8, -1, 10, -1, -1, 17, 14, -1, 16, -1, -1, 21, 20, -1, -1, -1, 24, -1, -1], "feature": [1, -2, 1, 1, 1, -2, 2, -2, 0, -2, -2, 1, 1, -2, 0, -2, -2, 0, 2, -2, -2, -2, 0, -2, -2], "threshold": [1.5299999713897705, -2.0, 4.020000100135803, 1.5950000286102295, 1.5699999928474426, -2.0, 5.440000057220459, -2.0, 37.11500072479248, -2.0, -2.0, 2.0649999380111694, 1.7100000381469727, -2.0, 25.814999103546143, -2.0, -2.0, 43.290000915527344, 66.59999942779541, -2.0, -2.0, -2.0, 47.045000076293945, -2.0, -2.0], "value": [[[35.0, 24.0]], [[0.0, 9.0]], [[35.0, 15.0]], [[34.0, 8.0]], [[7.0, 4.0]], [[6.0, 0.0]], [[1.0, 4.0]], [[0.0, 2.0]], [[1.0, 2.0]], [[1.0, 0.0]], [[0.0, 2.0]], [[27.0, 4.0]], [[21.0, 1.0]], [[15.0, 0.0]], [[6.0, 1.0]], [[0.0, 1.0]], [[6.0, 0.0]], [[6.0, 3.0]], [[6.0, 1.0]], [[6.0, 0.0]], [[0.0, 1.0]], [[0.0, 2.0]], [[1.0, 7.0]], [[1.0, 0.0]], [[0.0, 7.0]]]}, {"children_left": [1, -1, 3, 4, 5, 6, -1, 8, -1, -1, 11, 12, 13, -1, -1, 16, -1, -1, -1, -1, -1], "children_right": [2, -1, 20, 19, 10, 7, -1, 9, -1, -1, 18, 15, 14, -1, -1, 17, -1, -1, -1, -1, -1], "feature": [1, -2, 0, 2, 1, 0, -2, 0, -2, -2, 1, 1, 0, -2, -2, 2, -2, -2, -2, -2, -2], "threshold": [1.5399999618530273, -2.0, 48.96000099182129, 17.769999504089355, 1.715000033378601, 38.32499885559082, -2.0, 39.51499938964844, -2.0, -2.0, 1.8700000047683716, 1.75, 23.660000324249268, -2.0, -2.0, 8.28499984741211, -2.0, -2.0, -2.0, -2.0, -2.0], "value": [[[34.0, 25.0]], [[0.0, 8.0]], [[34.0, 17.0]], [[34.0, 8.0]], [[34.0, 4.0]], [[22.0, 1.0]], [[16.0, 0.0]], [[6.0, 1.0]], [[0.0, 1.0]], [[6.0, 0.0]], [[12.0, 3.0]], [[3.0, 3.0]], [[2.0, 2.0]], [[0.0, 2.0]], [[2.0, 0.0]], [[1.0, 1.0]], [[0.0, 1.0]], [[1.0, 0.0]], [[9.0, 0.0]], [[0.0, 4.0]], [[0.0, 9.0]]]}, {"children_left": [1, 2, 3, 4, 5, -1, -1, -1, 9, -1, 11, -1, -1, -1, 15, 16, -1, -1, -1], "children_right": [14, 13, 8, 7, 6, -1, -1, -1, 10, -1, 12, -1, -1, -1, 18, 17, -1, -1, -1], "feature": [2, 1, 2, 2, 1, -2, -2, -2, 2, -2, 2, -2, -2, -2, 1, 2, -2, -2, -2], "threshold": [14.005000114440918, 4.010000109672546, 2.8550000190734863, 2.2899999618530273, 1.5949999690055847, -2.0, -2.0, -2.0, 8.190000057220459, -2.0, 8.5, -2.0, -2.0, -2.0, 1.85999995470047, 18.389999389648438, -2.0, -2.0, -2.0], "value": [[[35.0, 24.0]], [[34.0, 8.0]], [[34.0, 4.0]], [[2.0, 3.0]], [[2.0, 1.0]], [[0.0, 1.0]], [[2.0, 0.0]], [[0.0, 2.0]], [[32.0, 1.0]], [[17.0, 0.0]], [[15.0, 1.0]], [[0.0, 1.0]], [[15.0, 0.0]], [[0.0, 4.0]], [[1.0, 16.0]], [[1.0, 7.0]], [[1.0, 0.0]], [[0.0, 7.0]], [[0.0, 9.0]]]}, {"children_left": [1, 2, -1, 4, 5, -1, 7, -1, 9, -1, -1, -1, -1], "children_right": [12, 3, -1, 11, 6, -1, 8, -1, 10, -1, -1, -1, -1], "feature": [0, 2, -2, 2, 0, -2, 2, -2, 2, -2, -2, -2, -2], "threshold": [46.829999923706055, 1.0350000262260437, -2.0, 4.784999847412109, 21.90500020980835, -2.0, 2.0899999737739563, -2.0, 2.8550000190734863, -2.0, -2.0, -2.0, -2.0], "value": [[[31.0, 28.0]], [[31.0, 3.0]], [[0.0, 1.0]], [[31.0, 2.0]], [[7.0, 2.0]], [[0.0, 1.0]], [[7.0, 1.0]], [[4.0, 0.0]], [[3.0, 1.0]], [[0.0, 1.0]], [[3.0, 0.0]], [[24.0, 0.0]], [[0.0, 25.0]]]}, {"children_left": [1, 2, -1, 4, 5, 6, -1, -1, -1, -1, 11, -1, 13, 14, -1, 16, -1, -1, 19, 20, -1, -1, -1], "children_right": [10, 3, -1, 9, 8, 7, -1, -1, -1, -1, 12, -1, 18, 15, -1, 17, -1, -1, 22, 21, -1, -1, -1], "feature": [0, 1, -2, 0, 2, 1, -2, -2, -2, -2, 1, -2, 1, 0, -2, 2, -2, -2, 0, 0, -2, -2, -2], "threshold": [38.470001220703125, 1.7350000143051147, -2.0, 36.51500129699707, 64.73999977111816, 2.8600000143051147, -2.0, -2.0, -2.0, -2.0, 1.5399999618530273, -2.0, 2.384999990463257, 39.14999961853027, -2.0, 15.069999694824219, -2.0, -2.0, 48.44999885559082, 42.61000061035156, -2.0, -2.0, -2.0], "value": [[[38.0, 21.0]], [[32.0, 3.0]], [[24.0, 0.0]], [[8.0, 3.0]], [[3.0, 3.0]], [[3.0, 1.0]], [[0.0, 1.0]], [[3.0, 0.0]], [[0.0, 2.0]], [[5.0, 0.0]], [[6.0, 18.0]], [[0.0, 10.0]], [[6.0, 8.0]], [[5.0, 2.0]], [[0.0, 1.0]], [[5.0, 1.0]], [[5.0, 0.0]], [[0.0, 1.0]], [[1.0, 6.0]], [[1.0, 1.0]], [[0.0, 1.0]], [[1.0, 0.0]], [[0.0, 5.0]]]}, {"children_left": [1, 2, -1, 4, 5, 6, -1, 8, -1, -1, -1, -1, -1], "children_right": [12, 3, -1, 11, 10, 7, -1, 9, -1, -1, -1, -1, -1], "feature": [2, 1, -2, 0, 2, 0, -2, 1, -2, -2, -2, -2, -2], "threshold": [17.769999504089355, 1.5399999618530273, -2.0, 47.27499961853027, 4.144999980926514, 34.85000038146973, -2.0, 1.8050000071525574, -2.0, -2.0, -2.0, -2.0, -2.0], "value": [[[32.0, 27.0]], [[32.0, 19.0]], [[0.0, 7.0]], [[32.0, 12.0]], [[32.0, 3.0]], [[7.0, 3.0]], [[5.0, 0.0]], [[2.0, 3.0]], [[0.0, 3.0]], [[2.0, 0.0]], [[25.0, 0.0]], [[0.0, 9.0]], [[0.0, 8.0]]]}, {"children_left": [1, 2, -1, 4, -1, 6, -1, -1, 9, 10, 11, -1, 13, -1, -1, 16, -1, -1, 19, 20, -1, -1, -1], "children_right": [8, 3, -1, 5, -1, 7, -1, -1, 18, 15, 12, -1, 14, -1, -1, 17, -1, -1, 22, 21, -1, -1, -1], "feature": [0, 0, -2, 1, -2, 1, -2, -2, 2, 2, 0, -2, 0, -2, -2, 1, -2, -2, 1, 0, -2, -2, -2], "threshold": [38.470001220703125, 22.22499990463257, -2.0, 2.0199999809265137, -2.0, 3.0649999380111694, -2.0, -2.0, 10.894999980926514, 5.3999998569488525, 39.14999961853027, -2.0, 48.53499984741211, -2.0, -2.0, 2.4550000429153442, -2.0, -2.0, 1.9399999380111694, 40.704999923706055, -2.0, -2.0, -2.0], "value": [[[29.0, 30.0]], [[22.0, 2.0]], [[0.0, 1.0]], [[22.0, 1.0]], [[18.0, 0.0]], [[4.0, 1.0]], [[0.0, 1.0]], [[4.0, 0.0]], [[7.0, 28.0]], [[6.0, 5.0]], [[1.0, 4.0]], [[0.0, 3.0]], [[1.0, 1.0]], [[1.0, 0.0]], [[0.0, 1.0]], [[5.0, 1.0]], [[5.0, 0.0]], [[0.0, 1.0]], [[1.0, 23.0]], [[1.0, 9.0]], [[1.0, 0.0]], [[0.0, 9.0]], [[0.0, 14.0]]]}, {"children_left": [1, 2, -1, 4, -1, 6, 7, 8, -1, -1, -1, 12, -1, -1, -1], "children_right": [14, 3, -1, 5, -1, 11, 10, 9, -1, -1, -1, 13, -1, -1, -1], "feature": [0, 0, -2, 2, -2, 1, 1, 2, -2, -2, -2, 2, -2, -2, -2], "threshold": [47.51500129699707, 22.22499990463257, -2.0, 1.0350000262260437, -2.0, 1.5850000381469727, 1.5699999928474426, 10.894999980926514, -2.0, -2.0, -2.0, 17.769999504089355, -2.0, -2.0, -2.0], "value": [[[33.0, 26.0]], [[33.0, 6.0]], [[0.0, 1.0]], [[33.0, 5.0]], [[0.0, 1.0]], [[33.0, 4.0]], [[3.0, 3.0]], [[3.0, 1.0]], [[3.0, 0.0]], [[0.0, 1.0]], [[0.0, 2.0]], [[30.0, 1.0]], [[30.0, 0.0]], [[0.0, 1.0]], [[0.0, 20.0]]]}, {"children_left": [1, -1, 3, 4, 5, 6, 7, -1, -1, -1, -1, 12, -1, -1, -1], "children_right": [2, -1, 14, 11, 10, 9, 8, -1, -1, -1, -1, 13, -1, -1, -1], "feature": [1, -2, 0, 0, 0, 0, 2, -2, -2, -2, -2, 2, -2, -2, -2], "threshold": [1.5399999618530273, -2.0, 47.560001373291016, 40.05000114440918, 35.94499969482422, 35.7450008392334, 2.8550000190734863, -2.0, -2.0, -2.0, -2.0, 12.674999713897705, -2.0, -2.0, -2.0], "value": [[[28.0, 31.0]], [[0.0, 15.0]], [[28.0, 16.0]], [[28.0, 7.0]], [[20.0, 2.0]], [[9.0, 2.0]], [[9.0, 1.0]], [[0.0, 1.0]], [[9.0, 0.0]], [[0.0, 1.0]], [[11.0, 0.0]], [[8.0, 5.0]], [[8.0, 0.0]], [[0.0, 5.0]], [[0.0, 9.0]]]}, {"children_left": [1, -1, 3, 4, 5, -1, 7, -1, -1, 10, -1, -1, -1], "children_right": [2, -1, 12, 9, 6, -1, 8, -1, -1, 11, -1, -1, -1], "feature": [1, -2, 0, 1, 1, -2, 0, -2, -2, 2, -2, -2, -2], "threshold": [1.5299999713897705, -2.0, 47.93000030517578, 1.5950000286102295, 1.5750000476837158, -2.0, 35.179999351501465, -2.0, -2.0, 64.90499973297119, -2.0, -2.0, -2.0], "value": [[[35.0, 24.0]], [[0.0, 10.0]], [[35.0, 14.0]], [[35.0, 6.0]], [[7.0, 5.0]], [[6.0, 0.0]], [[1.0, 5.0]], [[1.0, 0.0]], [[0.0, 5.0]], [[28.0, 1.0]], [[28.0, 0.0]], [[0.0, 1.0]], [[0.0, 8.0]]]}, {"children_left": [1, -1, 3, 4, 5, -1, -1, -1, 9, 10, 11, -1, -1, -1, -1], "children_right": [2, -1, 8, 7, 6, -1, -1, -1, 14, 13, 12, -1, -1, -1, -1], "feature": [1, -2, 0, 2, 0, -2, -2, -2, 0, 1, 1, -2, -2, -2, -2], "threshold": [1.5299999713897705, -2.0, 39.670000076293945, 4.784999847412109, 21.90500020980835, -2.0, -2.0, -2.0, 47.560001373291016, 5.434999942779541, 1.6299999952316284, -2.0, -2.0, -2.0, -2.0], "value": [[[28.0, 31.0]], [[0.0, 14.0]], [[28.0, 17.0]], [[25.0, 1.0]], [[7.0, 1.0]], [[0.0, 1.0]], [[7.0, 0.0]], [[18.0, 0.0]], [[3.0, 16.0]], [[3.0, 4.0]], [[3.0, 1.0]], [[0.0, 1.0]], [[3.0, 0.0]], [[0.0, 3.0]], [[0.0, 12.0]]]}, {"children_left": [1, 2, -1, 4, 5, -1, -1, 8, -1, -1, 11, -1, 13, 14, -1, 16, -1, 18, -1, -1, -1], "children_right": [10, 3, -1, 7, 6, -1, -1, 9, -1, -1, 12, -1, 20, 15, -1, 17, -1, 19, -1, -1, -1], "feature": [0, 0, -2, 1, 1, -2, -2, 2, -2, -2, 1, -2, 0, 0, -2, 0, -2, 2, -2, -2, -2], "threshold": [39.670000076293945, 21.90500020980835, -2.0, 1.590000033378601, 1.5750000476837158, -2.0, -2.0, 66.92999935150146, -2.0, -2.0, 1.5949999690055847, -2.0, 47.560001373291016, 42.61000061035156, -2.0, 45.349998474121094, -2.0, 10.194999694824219, -2.0, -2.0, -2.0], "value": [[[31.0, 28.0]], [[28.0, 5.0]], [[0.0, 3.0]], [[28.0, 2.0]], [[4.0, 1.0]], [[4.0, 0.0]], [[0.0, 1.0]], [[24.0, 1.0]], [[24.0, 0.0]], [[0.0, 1.0]], [[3.0, 23.0]], [[0.0, 9.0]], [[3.0, 14.0]], [[3.0, 4.0]], [[0.0, 3.0]], [[3.0, 1.0]], [[2.0, 0.0]], [[1.0, 1.0]], [[1.0, 0.0]], [[0.0, 1.0]], [[0.0, 10.0]]]}, {"children_left": [1, 2, 3, 4, -1, -1, -1, 8, 9, -1, 11, -1, -1, 14, 15, 16, 17, -1, -1, -1, -1, -1, -1], "children_right": [22, 7, 6, 5, -1, -1, -1, 13, 10, -1, 12, -1, -1, 21, 20, 19, 18, -1, -1, -1, -1, -1, -1], "feature": [2, 2, 2, 2, -2, -2, -2, 2, 2, -2, 0, -2, -2, 2, 1, 2, 2, -2, -2, -2, -2, -2, -2], "threshold": [17.769999504089355, 3.259999990463257, 1.9649999737739563, 1.0350000262260437, -2.0, -2.0, -2.0, 10.21999979019165, 8.145000219345093, -2.0, 50.15500068664551, -2.0, -2.0, 12.955000400543213, 5.915000081062317, 11.970000267028809, 11.260000228881836, -2.0, -2.0, -2.0, -2.0, -2.0, -2.0], "value": [[[30.0, 29.0]], [[30.0, 13.0]], [[2.0, 8.0]], [[2.0, 3.0]], [[0.0, 3.0]], [[2.0, 0.0]], [[0.0, 5.0]], [[28.0, 5.0]], [[18.0, 1.0]], [[12.0, 0.0]], [[6.0, 1.0]], [[6.0, 0.0]], [[0.0, 1.0]], [[10.0, 4.0]], [[4.0, 4.0]], [[4.0, 1.0]], [[1.0, 1.0]], [[1.0, 0.0]], [[0.0, 1.0]], [[3.0, 0.0]], [[0.0, 3.0]], [[6.0, 0.0]], [[0.0, 16.0]]]}, {"children_left": [1, 2, 3, -1, 5, 6, -1, -1, -1, -1, 11, 12, 13, -1, 15, -1, -1, -1, -1], "children_right": [10, 9, 4, -1, 8, 7, -1, -1, -1, -1, 18, 17, 14, -1, 16, -1, -1, -1, -1], "feature": [0, 2, 1, -2, 2, 0, -2, -2, -2, -2, 1, 1, 1, -2, 0, -2, -2, -2, -2], "threshold": [38.470001220703125, 66.92999935150146, 1.715000033378601, -2.0, 8.620000123977661, 23.660000324249268, -2.0, -2.0, -2.0, -2.0, 3.1000001430511475, 1.625, 1.5399999618530273, -2.0, 39.51499938964844, -2.0, -2.0, -2.0, -2.0], "value": [[[30.0, 29.0]], [[23.0, 3.0]], [[23.0, 2.0]], [[17.0, 0.0]], [[6.0, 2.0]], [[2.0, 2.0]], [[0.0, 2.0]], [[2.0, 0.0]], [[4.0, 0.0]], [[0.0, 1.0]], [[7.0, 26.0]], [[7.0, 12.0]], [[1.0, 12.0]], [[0.0, 10.0]], [[1.0, 2.0]], [[0.0, 2.0]], [[1.0, 0.0]], [[6.0, 0.0]], [[0.0, 14.0]]]}, {"children_left": [1, 2, 3, -1, 5, 6, 7, 8, -1, -1, -1, -1, -1, -1, 15, 16, -1, -1, -1], "children_right": [14, 13, 4, -1, 12, 11, 10, 9, -1, -1, -1, -1, -1, -1, 18, 17, -1, -1, -1], "feature": [2, 1, 1, -2, 2, 2, 2, 1, -2, -2, -2, -2, -2, -2, 2, 2, -2, -2, -2], "threshold": [14.005000114440918, 4.010000109672546, 1.5299999713897705, -2.0, 8.5, 8.145000219345093, 4.4649999141693115, 1.64000004529953, -2.0, -2.0, -2.0, -2.0, -2.0, -2.0, 17.4399995803833, 15.380000114440918, -2.0, -2.0, -2.0], "value": [[[30.0, 29.0]], [[29.0, 12.0]], [[29.0, 7.0]], [[0.0, 3.0]], [[29.0, 4.0]], [[9.0, 4.0]], [[9.0, 1.0]], [[3.0, 1.0]], [[0.0, 1.0]], [[3.0, 0.0]], [[6.0, 0.0]], [[0.0, 3.0]], [[20.0, 0.0]], [[0.0, 5.0]], [[1.0, 17.0]], [[1.0, 4.0]], [[0.0, 4.0]], [[1.0, 0.0]], [[0.0, 13.0]]]}, {"children_left": [1, 2, 3, 4, -1, -1, 7, -1, 9, 10, -1, -1, -1, -1, -1], "children_right": [14, 13, 6, 5, -1, -1, 8, -1, 12, 11, -1, -1, -1, -1, -1], "feature": [2, 0, 1, 0, -2, -2, 1, -2, 1, 0, -2, -2, -2, -2, -2], "threshold": [17.769999504089355, 47.93000030517578, 1.715000033378601, 38.470001220703125, -2.0, -2.0, 1.75, -2.0, 5.434999942779541, 36.15500068664551, -2.0, -2.0, -2.0, -2.0, -2.0], "value": [[[25.0, 34.0]], [[25.0, 15.0]], [[25.0, 7.0]], [[18.0, 2.0]], [[18.0, 0.0]], [[0.0, 2.0]], [[7.0, 5.0]], [[0.0, 2.0]], [[7.0, 3.0]], [[7.0, 2.0]], [[0.0, 2.0]], [[7.0, 0.0]], [[0.0, 1.0]], [[0.0, 8.0]], [[0.0, 19.0]]]}, {"children_left": [1, -1, 3, 4, 5, -1, -1, -1, 9, 10, 11, -1, 13, 14, 15, -1, 17, -1, 19, -1, -1, -1, -1, -1, -1], "children_right": [2, -1, 8, 7, 6, -1, -1, -1, 24, 23, 12, -1, 22, 21, 16, -1, 18, -1, 20, -1, -1, -1, -1, -1, -1], "feature": [1, -2, 1, 2, 0, -2, -2, -2, 1, 2, 1, -2, 2, 2, 1, -2, 1, -2, 1, -2, -2, -2, -2, -2, -2], "threshold": [1.5399999618530273, -2.0, 1.715000033378601, 4.144999980926514, 37.8799991607666, -2.0, -2.0, -2.0, 5.434999942779541, 20.380000114440918, 1.75, -2.0, 11.9350004196167, 10.255000114440918, 1.8949999809265137, -2.0, 2.3700000047683716, -2.0, 3.4950000047683716, -2.0, -2.0, -2.0, -2.0, -2.0, -2.0], "value": [[[28.0, 31.0]], [[0.0, 10.0]], [[28.0, 21.0]], [[21.0, 2.0]], [[8.0, 2.0]], [[8.0, 0.0]], [[0.0, 2.0]], [[13.0, 0.0]], [[7.0, 19.0]], [[7.0, 10.0]], [[7.0, 6.0]], [[0.0, 2.0]], [[7.0, 4.0]], [[3.0, 4.0]], [[3.0, 2.0]], [[0.0, 1.0]], [[3.0, 1.0]], [[2.0, 0.0]], [[1.0, 1.0]], [[0.0, 1.0]], [[1.0, 0.0]], [[0.0, 2.0]], [[4.0, 0.0]], [[0.0, 4.0]], [[0.0, 9.0]]]}, {"children_left": [1, 2, -1, 4, 5, 6, -1, 8, -1, -1, -1, 12, -1, 14, -1, 16, -1, -1, 19, 20, -1, -1, -1], "children_right": [18, 3, -1, 11, 10, 7, -1, 9, -1, -1, -1, 13, -1, 15, -1, 17, -1, -1, 22, 21, -1, -1, -1], "feature": [1, 1, -2, 1, 2, 0, -2, 0, -2, -2, -2, 1, -2, 1, -2, 1, -2, -2, 1, 1, -2, -2, -2], "threshold": [3.9900001287460327, 1.5299999713897705, -2.0, 1.7350000143051147, 4.144999980926514, 37.8799991607666, -2.0, 42.670000076293945, -2.0, -2.0, -2.0, 1.8700000047683716, -2.0, 2.2649999856948853, -2.0, 3.3450000286102295, -2.0, -2.0, 5.434999942779541, 4.170000076293945, -2.0, -2.0, -2.0], "value": [[[30.0, 29.0]], [[29.0, 15.0]], [[0.0, 9.0]], [[29.0, 6.0]], [[19.0, 1.0]], [[3.0, 1.0]], [[2.0, 0.0]], [[1.0, 1.0]], [[0.0, 1.0]], [[1.0, 0.0]], [[16.0, 0.0]], [[10.0, 5.0]], [[0.0, 2.0]], [[10.0, 3.0]], [[6.0, 0.0]], [[4.0, 3.0]], [[0.0, 3.0]], [[4.0, 0.0]], [[1.0, 14.0]], [[1.0, 2.0]], [[0.0, 2.0]], [[1.0, 0.0]], [[0.0, 12.0]]]}, {"children_left": [1, 2, -1, 4, -1, 6, 7, -1, 9, -1, 11, -1, -1, -1, -1], "children_right": [14, 3, -1, 5, -1, 13, 8, -1, 10, -1, 12, -1, -1, -1, -1], "feature": [0, 0, -2, 0, -2, 2, 2, -2, 0, -2, 1, -2, -2, -2, -2], "threshold": [47.51500129699707, 22.294999599456787, -2.0, 34.959999084472656, -2.0, 4.144999980926514, 2.4149999618530273, -2.0, 36.114999771118164, -2.0, 1.64000004529953, -2.0, -2.0, -2.0, -2.0], "value": [[[31.0, 28.0]], [[31.0, 3.0]], [[0.0, 1.0]], [[31.0, 2.0]], [[10.0, 0.0]], [[21.0, 2.0]], [[3.0, 2.0]], [[2.0, 0.0]], [[1.0, 2.0]], [[0.0, 1.0]], [[1.0, 1.0]], [[0.0, 1.0]], [[1.0, 0.0]], [[18.0, 0.0]], [[0.0, 25.0]]]}, {"children_left": [1, 2, 3, -1, 5, 6, -1, 8, -1, 10, 11, -1, -1, -1, 15, -1, -1, -1, -1], "children_right": [18, 17, 4, -1, 14, 7, -1, 9, -1, 13, 12, -1, -1, -1, 16, -1, -1, -1, -1], "feature": [2, 0, 0, -2, 2, 0, -2, 0, -2, 2, 1, -2, -2, -2, 0, -2, -2, -2, -2], "threshold": [17.4399995803833, 51.040000915527344, 21.90500020980835, -2.0, 14.559999942779541, 34.959999084472656, -2.0, 35.44000053405762, -2.0, 4.144999980926514, 1.64000004529953, -2.0, -2.0, -2.0, 39.079999923706055, -2.0, -2.0, -2.0, -2.0], "value": [[[34.0, 25.0]], [[34.0, 9.0]], [[34.0, 5.0]], [[0.0, 1.0]], [[34.0, 4.0]], [[32.0, 2.0]], [[14.0, 0.0]], [[18.0, 2.0]], [[0.0, 1.0]], [[18.0, 1.0]], [[2.0, 1.0]], [[0.0, 1.0]], [[2.0, 0.0]], [[16.0, 0.0]], [[2.0, 2.0]], [[2.0, 0.0]], [[0.0, 2.0]], [[0.0, 4.0]], [[0.0, 16.0]]]}, {"children_left": [1, 2, 3, -1, 5, 6, -1, 8, -1, -1, 11, -1, -1, -1, 15, 16, -1, -1, -1], "children_right": [14, 13, 4, -1, 10, 7, -1, 9, -1, -1, 12, -1, -1, -1, 18, 17, -1, -1, -1], "feature": [2, 0, 2, -2, 0, 1, -2, 2, -2, -2, 1, -2, -2, -2, 0, 1, -2, -2, -2], "threshold": [13.994999885559082, 49.40999984741211, 1.0350000262260437, -2.0, 41.77499961853027, 1.75, -2.0, 8.005000114440918, -2.0, -2.0, 1.5949999690055847, -2.0, -2.0, -2.0, 39.079999923706055, 3.21999990940094, -2.0, -2.0, -2.0], "value": [[[31.0, 28.0]], [[29.0, 6.0]], [[29.0, 3.0]], [[0.0, 1.0]], [[29.0, 2.0]], [[26.0, 1.0]], [[22.0, 0.0]], [[4.0, 1.0]], [[0.0, 1.0]], [[4.0, 0.0]], [[3.0, 1.0]], [[0.0, 1.0]], [[3.0, 0.0]], [[0.0, 3.0]], [[2.0, 22.0]], [[2.0, 2.0]], [[0.0, 2.0]], [[2.0, 0.0]], [[0.0, 20.0]]]}, {"children_left": [1, -1, 3, 4, 5, -1, 7, 8, -1, -1, -1, -1, -1], "children_right": [2, -1, 12, 11, 6, -1, 10, 9, -1, -1, -1, -1, -1], "feature": [1, -2, 0, 2, 0, -2, 1, 2, -2, -2, -2, -2, -2], "threshold": [1.5399999618530273, -2.0, 47.560001373291016, 14.839999675750732, 22.22499990463257, -2.0, 1.5850000381469727, 4.514999866485596, -2.0, -2.0, -2.0, -2.0, -2.0], "value": [[[30.0, 29.0]], [[0.0, 10.0]], [[30.0, 19.0]], [[30.0, 8.0]], [[30.0, 4.0]], [[0.0, 3.0]], [[30.0, 1.0]], [[6.0, 1.0]], [[0.0, 1.0]], [[6.0, 0.0]], [[24.0, 0.0]], [[0.0, 4.0]], [[0.0, 11.0]]]}, {"children_left": [1, -1, 3, 4, 5, 6, -1, -1, -1, -1, 11, 12, 13, -1, -1, -1, 17, -1, 19, -1, -1], "children_right": [2, -1, 10, 9, 8, 7, -1, -1, -1, -1, 16, 15, 14, -1, -1, -1, 18, -1, 20, -1, -1], "feature": [1, -2, 1, 2, 2, 1, -2, -2, -2, -2, 1, 1, 0, -2, -2, -2, 1, -2, 2, -2, -2], "threshold": [1.5299999713897705, -2.0, 1.715000033378601, 18.649999618530273, 4.4649999141693115, 1.5950000286102295, -2.0, -2.0, -2.0, -2.0, 3.2949999570846558, 2.0649999380111694, 37.385000228881836, -2.0, -2.0, -2.0, 4.010000109672546, -2.0, 10.255000114440918, -2.0, -2.0], "value": [[[34.0, 25.0]], [[0.0, 9.0]], [[34.0, 16.0]], [[25.0, 4.0]], [[25.0, 2.0]], [[8.0, 2.0]], [[0.0, 2.0]], [[8.0, 0.0]], [[17.0, 0.0]], [[0.0, 2.0]], [[9.0, 12.0]], [[2.0, 7.0]], [[2.0, 2.0]], [[0.0, 2.0]], [[2.0, 0.0]], [[0.0, 5.0]], [[7.0, 5.0]], [[6.0, 0.0]], [[1.0, 5.0]], [[1.0, 0.0]], [[0.0, 5.0]]]}, {"children_left": [1, 2, -1, 4, 5, -1, 7, 8, 9, -1, 11, -1, 13, -1, -1, -1, -1, -1, -1], "children_right": [18, 3, -1, 17, 6, -1, 16, 15, 10, -1, 12, -1, 14, -1, -1, -1, -1, -1, -1], "feature": [0, 0, -2, 2, 1, -2, 1, 1, 0, -2, 0, -2, 0, -2, -2, -2, -2, -2, -2], "threshold": [47.51500129699707, 34.959999084472656, -2.0, 17.769999504089355, 1.5299999713897705, -2.0, 5.434999942779541, 1.8050000071525574, 35.385000228881836, -2.0, 38.56999969482422, -2.0, 38.76999855041504, -2.0, -2.0, -2.0, -2.0, -2.0, -2.0], "value": [[[32.0, 27.0]], [[32.0, 11.0]], [[10.0, 0.0]], [[22.0, 11.0]], [[22.0, 7.0]], [[0.0, 3.0]], [[22.0, 4.0]], [[22.0, 3.0]], [[11.0, 3.0]], [[0.0, 2.0]], [[11.0, 1.0]], [[6.0, 0.0]], [[5.0, 1.0]], [[0.0, 1.0]], [[5.0, 0.0]], [[11.0, 0.0]], [[0.0, 1.0]], [[0.0, 4.0]], [[0.0, 16.0]]]}, {"children_left": [1, 2, 3, -1, 5, -1, 7, 8, 9, 10, -1, 12, -1, -1, -1, -1, -1, -1, -1], "children_right": [18, 17, 4, -1, 6, -1, 16, 15, 14, 11, -1, 13, -1, -1, -1, -1, -1, -1, -1], "feature": [2, 0, 0, -2, 1, -2, 1, 2, 2, 1, -2, 0, -2, -2, -2, -2, -2, -2, -2], "threshold": [18.02999973297119, 49.40999984741211, 21.90500020980835, -2.0, 1.5299999713897705, -2.0, 5.434999942779541, 4.4649999141693115, 3.399999976158142, 1.75, -2.0, 37.385000228881836, -2.0, -2.0, -2.0, -2.0, -2.0, -2.0, -2.0], "value": [[[35.0, 24.0]], [[35.0, 13.0]], [[35.0, 8.0]], [[0.0, 1.0]], [[35.0, 7.0]], [[0.0, 3.0]], [[35.0, 4.0]], [[35.0, 2.0]], [[8.0, 2.0]], [[8.0, 1.0]], [[6.0, 0.0]], [[2.0, 1.0]], [[0.0, 1.0]], [[2.0, 0.0]], [[0.0, 1.0]], [[27.0, 0.0]], [[0.0, 2.0]], [[0.0, 5.0]], [[0.0, 11.0]]]}, {"children_left": [1, 2, -1, 4, 5, -1, 7, 8, 9, -1, 11, -1, -1, -1, -1, -1, -1], "children_right": [16, 3, -1, 15, 6, -1, 14, 13, 10, -1, 12, -1, -1, -1, -1, -1, -1], "feature": [2, 1, -2, 0, 0, -2, 1, 2, 0, -2, 0, -2, -2, -2, -2, -2, -2], "threshold": [17.769999504089355, 1.5299999713897705, -2.0, 48.005001068115234, 21.90500020980835, -2.0, 5.434999942779541, 4.4649999141693115, 34.85000038146973, -2.0, 39.14999961853027, -2.0, -2.0, -2.0, -2.0, -2.0, -2.0], "value": [[[32.0, 27.0]], [[32.0, 13.0]], [[0.0, 4.0]], [[32.0, 9.0]], [[32.0, 5.0]], [[0.0, 1.0]], [[32.0, 4.0]], [[32.0, 2.0]], [[6.0, 2.0]], [[3.0, 0.0]], [[3.0, 2.0]], [[0.0, 2.0]], [[3.0, 0.0]], [[26.0, 0.0]], [[0.0, 2.0]], [[0.0, 4.0]], [[0.0, 14.0]]]}, {"children_left": [1, -1, 3, 4, 5, -1, 7, -1, 9, -1, -1, 12, 13, 14, -1, -1, 17, -1, -1, 20, -1, 22, 23, 24, -1, -1, 27, -1, -1, -1, -1], "children_right": [2, -1, 30, 11, 6, -1, 8, -1, 10, -1, -1, 19, 16, 15, -1, -1, 18, -1, -1, 21, -1, 29, 26, 25, -1, -1, 28, -1, -1, -1, -1], "feature": [1, -2, 2, 1, 0, -2, 2, -2, 1, -2, -2, 1, 1, 2, -2, -2, 0, -2, -2, 1, -2, 2, 2, 1, -2, -2, 1, -2, -2, -2, -2], "threshold": [1.5399999618530273, -2.0, 17.304999351501465, 1.715000033378601, 38.404998779296875, -2.0, 2.9149999618530273, -2.0, 1.5699999928474426, -2.0, -2.0, 1.8050000071525574, 1.75, 2.8149998784065247, -2.0, -2.0, 37.0049991607666, -2.0, -2.0, 2.3700000047683716, -2.0, 15.244999885559082, 9.929999828338623, 3.4950000047683716, -2.0, -2.0, 3.980000138282776, -2.0, -2.0, -2.0, -2.0], "value": [[[35.0, 24.0]], [[0.0, 8.0]], [[35.0, 16.0]], [[35.0, 12.0]], [[23.0, 1.0]], [[21.0, 0.0]], [[2.0, 1.0]], [[1.0, 0.0]], [[1.0, 1.0]], [[1.0, 0.0]], [[0.0, 1.0]], [[12.0, 11.0]], [[2.0, 6.0]], [[1.0, 2.0]], [[1.0, 0.0]], [[0.0, 2.0]], [[1.0, 4.0]], [[0.0, 4.0]], [[1.0, 0.0]], [[10.0, 5.0]], [[5.0, 0.0]], [[5.0, 5.0]], [[2.0, 5.0]], [[1.0, 1.0]], [[0.0, 1.0]], [[1.0, 0.0]], [[1.0, 4.0]], [[1.0, 0.0]], [[0.0, 4.0]], [[3.0, 0.0]], [[0.0, 4.0]]]}, {"children_left": [1, 2, 3, 4, -1, 6, -1, 8, 9, -1, 11, -1, -1, -1, -1, -1, -1], "children_right": [16, 15, 14, 5, -1, 7, -1, 13, 10, -1, 12, -1, -1, -1, -1, -1, -1], "feature": [0, 1, 2, 2, -2, 1, -2, 0, 1, -2, 0, -2, -2, -2, -2, -2, -2], "threshold": [46.78499984741211, 5.434999942779541, 16.94499969482422, 1.1650000214576721, -2.0, 1.5299999713897705, -2.0, 35.22999954223633, 1.7199999690055847, -2.0, 34.885000228881836, -2.0, -2.0, -2.0, -2.0, -2.0, -2.0], "value": [[[28.0, 31.0]], [[28.0, 9.0]], [[28.0, 6.0]], [[28.0, 3.0]], [[0.0, 1.0]], [[28.0, 2.0]], [[0.0, 1.0]], [[28.0, 1.0]], [[9.0, 1.0]], [[7.0, 0.0]], [[2.0, 1.0]], [[2.0, 0.0]], [[0.0, 1.0]], [[19.0, 0.0]], [[0.0, 3.0]], [[0.0, 3.0]], [[0.0, 22.0]]]}, {"children_left": [1, -1, 3, 4, -1, 6, 7, 8, 9, -1, -1, -1, -1, -1, -1], "children_right": [2, -1, 14, 5, -1, 13, 12, 11, 10, -1, -1, -1, -1, -1, -1], "feature": [1, -2, 0, 0, -2, 2, 2, 0, 2, -2, -2, -2, -2, -2, -2], "threshold": [1.5299999713897705, -2.0, 47.560001373291016, 21.90500020980835, -2.0, 18.31999969482422, 2.8550000190734863, 37.385000228881836, 1.9949999451637268, -2.0, -2.0, -2.0, -2.0, -2.0, -2.0], "value": [[[37.0, 22.0]], [[0.0, 8.0]], [[37.0, 14.0]], [[37.0, 8.0]], [[0.0, 1.0]], [[37.0, 7.0]], [[37.0, 2.0]], [[4.0, 2.0]], [[1.0, 2.0]], [[1.0, 0.0]], [[0.0, 2.0]], [[3.0, 0.0]], [[33.0, 0.0]], [[0.0, 5.0]], [[0.0, 6.0]]]}, {"children_left": [1, 2, -1, 4, 5, 6, 7, -1, 9, -1, 11, -1, -1, -1, 15, -1, -1, -1, -1], "children_right": [18, 3, -1, 17, 14, 13, 8, -1, 10, -1, 12, -1, -1, -1, 16, -1, -1, -1, -1], "feature": [0, 1, -2, 2, 2, 2, 0, -2, 2, -2, 0, -2, -2, -2, 1, -2, -2, -2, -2], "threshold": [47.48500061035156, 1.5299999713897705, -2.0, 18.184999465942383, 4.784999847412109, 4.079999923706055, 34.85000038146973, -2.0, 2.0899999737739563, -2.0, 36.114999771118164, -2.0, -2.0, -2.0, 5.434999942779541, -2.0, -2.0, -2.0, -2.0], "value": [[[35.0, 24.0]], [[35.0, 9.0]], [[0.0, 3.0]], [[35.0, 6.0]], [[35.0, 3.0]], [[7.0, 2.0]], [[7.0, 1.0]], [[4.0, 0.0]], [[3.0, 1.0]], [[2.0, 0.0]], [[1.0, 1.0]], [[0.0, 1.0]], [[1.0, 0.0]], [[0.0, 1.0]], [[28.0, 1.0]], [[28.0, 0.0]], [[0.0, 1.0]], [[0.0, 3.0]], [[0.0, 15.0]]]}, {"children_left": [1, 2, 3, -1, 5, -1, -1, -1, 9, 10, -1, -1, -1], "children_right": [8, 7, 4, -1, 6, -1, -1, -1, 12, 11, -1, -1, -1], "feature": [1, 2, 0, -2, 1, -2, -2, -2, 1, 0, -2, -2, -2], "threshold": [3.9900001287460327, 18.389999389648438, 42.05500030517578, -2.0, 1.5949999690055847, -2.0, -2.0, -2.0, 4.1499998569488525, 45.904998779296875, -2.0, -2.0, -2.0], "value": [[[31.0, 28.0]], [[30.0, 15.0]], [[30.0, 3.0]], [[26.0, 0.0]], [[4.0, 3.0]], [[0.0, 3.0]], [[4.0, 0.0]], [[0.0, 12.0]], [[1.0, 13.0]], [[1.0, 3.0]], [[1.0, 0.0]], [[0.0, 3.0]], [[0.0, 10.0]]]}, {"children_left": [1, -1, 3, 4, -1, 6, 7, -1, -1, -1, -1], "children_right": [2, -1, 10, 5, -1, 9, 8, -1, -1, -1, -1], "feature": [1, -2, 0, 0, -2, 2, 1, -2, -2, -2, -2], "threshold": [1.5399999618530273, -2.0, 47.560001373291016, 38.56999969482422, -2.0, 14.839999675750732, 1.625, -2.0, -2.0, -2.0, -2.0], "value": [[[39.0, 20.0]], [[0.0, 7.0]], [[39.0, 13.0]], [[39.0, 4.0]], [[26.0, 0.0]], [[13.0, 4.0]], [[13.0, 2.0]], [[0.0, 2.0]], [[13.0, 0.0]], [[0.0, 2.0]], [[0.0, 9.0]]]}, {"children_left": [1, 2, 3, -1, 5, 6, -1, -1, 9, 10, 11, -1, 13, -1, -1, -1, -1, -1, -1], "children_right": [18, 17, 4, -1, 8, 7, -1, -1, 16, 15, 12, -1, 14, -1, -1, -1, -1, -1, -1], "feature": [0, 2, 0, -2, 1, 0, -2, -2, 1, 0, 1, -2, 1, -2, -2, -2, -2, -2, -2], "threshold": [47.51500129699707, 18.649999618530273, 21.90500020980835, -2.0, 1.5850000381469727, 37.92500114440918, -2.0, -2.0, 5.434999942779541, 36.114999771118164, 1.7049999833106995, -2.0, 2.8600000143051147, -2.0, -2.0, -2.0, -2.0, -2.0, -2.0], "value": [[[32.0, 27.0]], [[32.0, 11.0]], [[32.0, 9.0]], [[0.0, 2.0]], [[32.0, 7.0]], [[3.0, 5.0]], [[3.0, 0.0]], [[0.0, 5.0]], [[29.0, 2.0]], [[29.0, 1.0]], [[8.0, 1.0]], [[5.0, 0.0]], [[3.0, 1.0]], [[0.0, 1.0]], [[3.0, 0.0]], [[21.0, 0.0]], [[0.0, 1.0]], [[0.0, 2.0]], [[0.0, 16.0]]]}, {"children_left": [1, 2, -1, 4, -1, 6, 7, -1, 9, 10, -1, -1, 13, 14, -1, -1, -1, -1, -1], "children_right": [18, 3, -1, 5, -1, 17, 8, -1, 12, 11, -1, -1, 16, 15, -1, -1, -1, -1, -1], "feature": [2, 1, -2, 2, -2, 1, 2, -2, 2, 2, -2, -2, 2, 2, -2, -2, -2, -2, -2], "threshold": [17.795000076293945, 1.5399999618530273, -2.0, 2.9149999618530273, -2.0, 3.9900001287460327, 4.144999980926514, -2.0, 4.8349997997283936, 4.4649999141693115, -2.0, -2.0, 8.5, 8.190000057220459, -2.0, -2.0, -2.0, -2.0, -2.0], "value": [[[28.0, 31.0]], [[28.0, 17.0]], [[0.0, 6.0]], [[28.0, 11.0]], [[6.0, 0.0]], [[22.0, 11.0]], [[22.0, 5.0]], [[0.0, 2.0]], [[22.0, 3.0]], [[3.0, 2.0]], [[3.0, 0.0]], [[0.0, 2.0]], [[19.0, 1.0]], [[7.0, 1.0]], [[7.0, 0.0]], [[0.0, 1.0]], [[12.0, 0.0]], [[0.0, 6.0]], [[0.0, 14.0]]]}, {"children_left": [1, 2, 3, -1, 5, 6, 7, -1, -1, -1, -1, -1, 13, -1, 15, -1, -1], "children_right": [12, 11, 4, -1, 10, 9, 8, -1, -1, -1, -1, -1, 14, -1, 16, -1, -1], "feature": [2, 1, 0, -2, 0, 1, 2, -2, -2, -2, -2, -2, 1, -2, 0, -2, -2], "threshold": [13.994999885559082, 6.075000047683716, 21.90500020980835, -2.0, 50.94000053405762, 1.590000033378601, 4.4649999141693115, -2.0, -2.0, -2.0, -2.0, -2.0, 3.384999990463257, -2.0, 39.079999923706055, -2.0, -2.0], "value": [[[35.0, 24.0]], [[32.0, 8.0]], [[32.0, 6.0]], [[0.0, 2.0]], [[32.0, 4.0]], [[32.0, 2.0]], [[5.0, 2.0]], [[0.0, 2.0]], [[5.0, 0.0]], [[27.0, 0.0]], [[0.0, 2.0]], [[0.0, 2.0]], [[3.0, 16.0]], [[0.0, 12.0]], [[3.0, 4.0]], [[3.0, 0.0]], [[0.0, 4.0]]]}, {"children_left": [1, 2, 3, -1, 5, 6, 7, -1, 9, -1, -1, -1, 13, -1, 15, -1, -1, -1, -1], "children_right": [18, 17, 4, -1, 12, 11, 8, -1, 10, -1, -1, -1, 14, -1, 16, -1, -1, -1, -1], "feature": [0, 2, 0, -2, 2, 2, 2, -2, 1, -2, -2, -2, 0, -2, 2, -2, -2, -2, -2], "threshold": [47.560001373291016, 18.649999618530273, 21.90500020980835, -2.0, 4.4649999141693115, 3.3550000190734863, 2.4149999618530273, -2.0, 1.6899999976158142, -2.0, -2.0, -2.0, 40.415000915527344, -2.0, 12.674999713897705, -2.0, -2.0, -2.0, -2.0], "value": [[[33.0, 26.0]], [[33.0, 9.0]], [[33.0, 6.0]], [[0.0, 3.0]], [[33.0, 3.0]], [[9.0, 2.0]], [[9.0, 1.0]], [[6.0, 0.0]], [[3.0, 1.0]], [[3.0, 0.0]], [[0.0, 1.0]], [[0.0, 1.0]], [[24.0, 1.0]], [[19.0, 0.0]], [[5.0, 1.0]], [[5.0, 0.0]], [[0.0, 1.0]], [[0.0, 3.0]], [[0.0, 17.0]]]}, {"children_left": [1, 2, 3, 4, -1, -1, 7, -1, 9, -1, -1, 12, 13, 14, -1, -1, -1, 18, -1, -1, -1], "children_right": [20, 11, 6, 5, -1, -1, 8, -1, 10, -1, -1, 17, 16, 15, -1, -1, -1, 19, -1, -1, -1], "feature": [0, 1, 1, 2, -2, -2, 1, -2, 0, -2, -2, 0, 0, 0, -2, -2, -2, 0, -2, -2, -2], "threshold": [47.51500129699707, 1.600000023841858, 1.5699999928474426, 3.0399999618530273, -2.0, -2.0, 1.5850000381469727, -2.0, 38.43000030517578, -2.0, -2.0, 45.349998474121094, 35.94499969482422, 35.7450008392334, -2.0, -2.0, -2.0, 46.079999923706055, -2.0, -2.0, -2.0], "value": [[[27.0, 32.0]], [[27.0, 9.0]], [[4.0, 6.0]], [[3.0, 2.0]], [[0.0, 2.0]], [[3.0, 0.0]], [[1.0, 4.0]], [[0.0, 1.0]], [[1.0, 3.0]], [[1.0, 0.0]], [[0.0, 3.0]], [[23.0, 3.0]], [[22.0, 2.0]], [[10.0, 2.0]], [[10.0, 0.0]], [[0.0, 2.0]], [[12.0, 0.0]], [[1.0, 1.0]], [[0.0, 1.0]], [[1.0, 0.0]], [[0.0, 23.0]]]}, {"children_left": [1, 2, 3, -1, 5, -1, 7, 8, -1, -1, 11, -1, 13, -1, -1, -1, 17, 18, 19, -1, -1, -1, -1], "children_right": [16, 15, 4, -1, 6, -1, 10, 9, -1, -1, 12, -1, 14, -1, -1, -1, 22, 21, 20, -1, -1, -1, -1], "feature": [1, 2, 1, -2, 0, -2, 1, 1, -2, -2, 0, -2, 0, -2, -2, -2, 1, 0, 2, -2, -2, -2, -2], "threshold": [2.0649999380111694, 18.389999389648438, 1.5399999618530273, -2.0, 21.90500020980835, -2.0, 1.5850000381469727, 1.5750000476837158, -2.0, -2.0, 34.85000038146973, -2.0, 36.114999771118164, -2.0, -2.0, -2.0, 5.434999942779541, 46.60000038146973, 64.73999977111816, -2.0, -2.0, -2.0, -2.0], "value": [[[26.0, 33.0]], [[22.0, 12.0]], [[22.0, 8.0]], [[0.0, 5.0]], [[22.0, 3.0]], [[0.0, 1.0]], [[22.0, 2.0]], [[4.0, 1.0]], [[4.0, 0.0]], [[0.0, 1.0]], [[18.0, 1.0]], [[9.0, 0.0]], [[9.0, 1.0]], [[0.0, 1.0]], [[9.0, 0.0]], [[0.0, 4.0]], [[4.0, 21.0]], [[4.0, 10.0]], [[4.0, 2.0]], [[4.0, 0.0]], [[0.0, 2.0]], [[0.0, 8.0]], [[0.0, 11.0]]]}, {"children_left": [1, 2, 3, 4, 5, -1, -1, -1, -1, 10, 11, -1, 13, -1, 15, -1, -1, -1, -1], "children_right": [18, 9, 8, 7, 6, -1, -1, -1, -1, 17, 12, -1, 14, -1, 16, -1, -1, -1, -1], "feature": [0, 0, 2, 2, 0, -2, -2, -2, -2, 2, 0, -2, 2, -2, 0, -2, -2, -2, -2], "threshold": [47.51500129699707, 38.22500038146973, 66.92999935150146, 2.8550000190734863, 34.85000038146973, -2.0, -2.0, -2.0, -2.0, 16.0649995803833, 38.76999855041504, -2.0, 10.605000019073486, -2.0, 41.029998779296875, -2.0, -2.0, -2.0, -2.0], "value": [[[33.0, 26.0]], [[33.0, 10.0]], [[23.0, 2.0]], [[23.0, 1.0]], [[4.0, 1.0]], [[4.0, 0.0]], [[0.0, 1.0]], [[19.0, 0.0]], [[0.0, 1.0]], [[10.0, 8.0]], [[10.0, 6.0]], [[0.0, 5.0]], [[10.0, 1.0]], [[9.0, 0.0]], [[1.0, 1.0]], [[1.0, 0.0]], [[0.0, 1.0]], [[0.0, 2.0]], [[0.0, 16.0]]]}, {"children_left": [1, -1, 3, 4, 5, 6, 7, -1, 9, -1, -1, -1, -1, -1, 15, 16, -1, -1, -1], "children_right": [2, -1, 14, 13, 12, 11, 8, -1, 10, -1, -1, -1, -1, -1, 18, 17, -1, -1, -1], "feature": [1, -2, 0, 2, 2, 2, 0, -2, 0, -2, -2, -2, -2, -2, 2, 0, -2, -2, -2], "threshold": [1.5299999713897705, -2.0, 40.415000915527344, 66.92999935150146, 4.144999980926514, 3.759999990463257, 34.85000038146973, -2.0, 37.385000228881836, -2.0, -2.0, -2.0, -2.0, -2.0, 9.929999828338623, 50.15500068664551, -2.0, -2.0, -2.0], "value": [[[25.0, 34.0]], [[0.0, 13.0]], [[25.0, 21.0]], [[22.0, 3.0]], [[22.0, 2.0]], [[4.0, 2.0]], [[4.0, 1.0]], [[3.0, 0.0]], [[1.0, 1.0]], [[0.0, 1.0]], [[1.0, 0.0]], [[0.0, 1.0]], [[18.0, 0.0]], [[0.0, 1.0]], [[3.0, 18.0]], [[3.0, 2.0]], [[3.0, 0.0]], [[0.0, 2.0]], [[0.0, 16.0]]]}, {"children_left": [1, -1, 3, 4, 5, -1, -1, 8, 9, -1, -1, -1, -1], "children_right": [2, -1, 12, 7, 6, -1, -1, 11, 10, -1, -1, -1, -1], "feature": [1, -2, 0, 2, 2, -2, -2, 2, 0, -2, -2, -2, -2], "threshold": [1.5299999713897705, -2.0, 47.48500061035156, 2.899999976158142, 1.9599999785423279, -2.0, -2.0, 4.784999847412109, 22.529999256134033, -2.0, -2.0, -2.0, -2.0], "value": [[[34.0, 25.0]], [[0.0, 8.0]], [[34.0, 17.0]], [[34.0, 4.0]], [[1.0, 3.0]], [[1.0, 0.0]], [[0.0, 3.0]], [[33.0, 1.0]], [[6.0, 1.0]], [[0.0, 1.0]], [[6.0, 0.0]], [[27.0, 0.0]], [[0.0, 13.0]]]}, {"children_left": [1, 2, 3, -1, 5, -1, 7, -1, -1, 10, -1, 12, -1, -1, -1], "children_right": [14, 9, 4, -1, 6, -1, 8, -1, -1, 11, -1, 13, -1, -1, -1], "feature": [0, 0, 0, -2, 1, -2, 0, -2, -2, 1, -2, 2, -2, -2, -2], "threshold": [47.560001373291016, 38.56999969482422, 35.59000015258789, -2.0, 2.0199999809265137, -2.0, 36.9950008392334, -2.0, -2.0, 1.6299999952316284, -2.0, 16.0649995803833, -2.0, -2.0, -2.0], "value": [[[33.0, 26.0]], [[33.0, 4.0]], [[23.0, 1.0]], [[13.0, 0.0]], [[10.0, 1.0]], [[9.0, 0.0]], [[1.0, 1.0]], [[0.0, 1.0]], [[1.0, 0.0]], [[10.0, 3.0]], [[0.0, 2.0]], [[10.0, 1.0]], [[10.0, 0.0]], [[0.0, 1.0]], [[0.0, 22.0]]]}, {"children_left": [1, 2, 3, -1, 5, -1, 7, -1, 9, -1, 11, -1, -1, -1, -1], "children_right": [14, 13, 4, -1, 6, -1, 8, -1, 10, -1, 12, -1, -1, -1, -1], "feature": [0, 2, 0, -2, 0, -2, 0, -2, 0, -2, 0, -2, -2, -2, -2], "threshold": [47.51500129699707, 18.31999969482422, 21.90500020980835, -2.0, 38.404998779296875, -2.0, 38.76999855041504, -2.0, 42.05500030517578, -2.0, 44.19999885559082, -2.0, -2.0, -2.0, -2.0], "value": [[[39.0, 20.0]], [[39.0, 4.0]], [[39.0, 3.0]], [[0.0, 1.0]], [[39.0, 2.0]], [[25.0, 0.0]], [[14.0, 2.0]], [[0.0, 1.0]], [[14.0, 1.0]], [[7.0, 0.0]], [[7.0, 1.0]], [[0.0, 1.0]], [[7.0, 0.0]], [[0.0, 1.0]], [[0.0, 16.0]]]}, {"children_left": [1, 2, -1, 4, -1, -1, 7, 8, 9, -1, 11, -1, 13, -1, -1, 16, -1, -1, -1], "children_right": [6, 3, -1, 5, -1, -1, 18, 15, 10, -1, 12, -1, 14, -1, -1, 17, -1, -1, -1], "feature": [1, 1, -2, 2, -2, -2, 2, 1, 0, -2, 1, -2, 1, -2, -2, 2, -2, -2, -2], "threshold": [1.5850000381469727, 1.5450000166893005, -2.0, 8.045000076293945, -2.0, -2.0, 17.769999504089355, 4.010000109672546, 21.90500020980835, -2.0, 2.4550000429153442, -2.0, 3.2549999952316284, -2.0, -2.0, 16.079999446868896, -2.0, -2.0, -2.0], "value": [[[30.0, 29.0]], [[1.0, 15.0]], [[0.0, 13.0]], [[1.0, 2.0]], [[0.0, 2.0]], [[1.0, 0.0]], [[29.0, 14.0]], [[29.0, 9.0]], [[26.0, 3.0]], [[0.0, 2.0]], [[26.0, 1.0]], [[24.0, 0.0]], [[2.0, 1.0]], [[0.0, 1.0]], [[2.0, 0.0]], [[3.0, 6.0]], [[0.0, 6.0]], [[3.0, 0.0]], [[0.0, 5.0]]]}, {"children_left": [1, 2, 3, -1, 5, 6, 7, -1, 9, -1, -1, -1, -1, -1, -1], "children_right": [14, 13, 4, -1, 12, 11, 8, -1, 10, -1, -1, -1, -1, -1, -1], "feature": [0, 1, 1, -2, 2, 2, 0, -2, 0, -2, -2, -2, -2, -2, -2], "threshold": [47.51500129699707, 5.710000038146973, 1.5299999713897705, -2.0, 4.784999847412109, 3.759999990463257, 34.204999923706055, -2.0, 37.385000228881836, -2.0, -2.0, -2.0, -2.0, -2.0, -2.0], "value": [[[35.0, 24.0]], [[35.0, 9.0]], [[35.0, 6.0]], [[0.0, 1.0]], [[35.0, 5.0]], [[6.0, 5.0]], [[6.0, 1.0]], [[4.0, 0.0]], [[2.0, 1.0]], [[0.0, 1.0]], [[2.0, 0.0]], [[0.0, 4.0]], [[29.0, 0.0]], [[0.0, 3.0]], [[0.0, 15.0]]]}, {"children_left": [1, 2, 3, -1, 5, -1, 7, -1, -1, 10, -1, 12, 13, 14, -1, -1, -1, 18, -1, -1, -1], "children_right": [20, 9, 4, -1, 6, -1, 8, -1, -1, 11, -1, 17, 16, 15, -1, -1, -1, 19, -1, -1, -1], "feature": [0, 1, 2, -2, 1, -2, 2, -2, -2, 1, -2, 2, 1, 2, -2, -2, -2, 0, -2, -2, -2], "threshold": [47.48500061035156, 1.600000023841858, 4.4649999141693115, -2.0, 1.5299999713897705, -2.0, 16.204999923706055, -2.0, -2.0, 1.715000033378601, -2.0, 5.71999979019165, 1.75, 2.8149998784065247, -2.0, -2.0, -2.0, 36.51500129699707, -2.0, -2.0, -2.0], "value": [[[31.0, 28.0]], [[31.0, 15.0]], [[6.0, 9.0]], [[0.0, 7.0]], [[6.0, 2.0]], [[0.0, 1.0]], [[6.0, 1.0]], [[6.0, 0.0]], [[0.0, 1.0]], [[25.0, 6.0]], [[10.0, 0.0]], [[15.0, 6.0]], [[2.0, 5.0]], [[2.0, 3.0]], [[2.0, 0.0]], [[0.0, 3.0]], [[0.0, 2.0]], [[13.0, 1.0]], [[0.0, 1.0]], [[13.0, 0.0]], [[0.0, 13.0]]]}, {"children_left": [1, -1, 3, 4, 5, 6, 7, -1, 9, -1, -1, 12, -1, -1, -1, 16, -1, 18, -1, -1, 21, -1, -1], "children_right": [2, -1, 20, 15, 14, 11, 8, -1, 10, -1, -1, 13, -1, -1, -1, 17, -1, 19, -1, -1, 22, -1, -1], "feature": [1, -2, 0, 2, 2, 2, 0, -2, 2, -2, -2, 1, -2, -2, -2, 0, -2, 0, -2, -2, 2, -2, -2], "threshold": [1.5299999713897705, -2.0, 45.349998474121094, 4.784999847412109, 4.4649999141693115, 2.8550000190734863, 34.204999923706055, -2.0, 2.0899999737739563, -2.0, -2.0, 1.5950000286102295, -2.0, -2.0, -2.0, 35.80000114440918, -2.0, 36.51500129699707, -2.0, -2.0, 5.15500020980835, -2.0, -2.0], "value": [[[34.0, 25.0]], [[0.0, 9.0]], [[34.0, 16.0]], [[33.0, 6.0]], [[9.0, 5.0]], [[9.0, 3.0]], [[2.0, 2.0]], [[1.0, 0.0]], [[1.0, 2.0]], [[1.0, 0.0]], [[0.0, 2.0]], [[7.0, 1.0]], [[0.0, 1.0]], [[7.0, 0.0]], [[0.0, 2.0]], [[24.0, 1.0]], [[15.0, 0.0]], [[9.0, 1.0]], [[0.0, 1.0]], [[9.0, 0.0]], [[1.0, 10.0]], [[1.0, 0.0]], [[0.0, 10.0]]]}, {"children_left": [1, 2, 3, -1, 5, -1, 7, 8, -1, -1, 11, -1, 13, -1, -1, 16, -1, 18, -1, -1, 21, 22, -1, -1, -1], "children_right": [20, 15, 4, -1, 6, -1, 10, 9, -1, -1, 12, -1, 14, -1, -1, 17, -1, 19, -1, -1, 24, 23, -1, -1, -1], "feature": [0, 2, 0, -2, 2, -2, 1, 0, -2, -2, 0, -2, 2, -2, -2, 2, -2, 2, -2, -2, 0, 2, -2, -2, -2], "threshold": [41.73000144958496, 14.839999675750732, 21.90500020980835, -2.0, 1.0350000262260437, -2.0, 1.5850000381469727, 38.02499961853027, -2.0, -2.0, 34.959999084472656, -2.0, 4.200000047683716, -2.0, -2.0, 16.544999599456787, -2.0, 66.92999935150146, -2.0, -2.0, 48.96000099182129, 12.78499960899353, -2.0, -2.0, -2.0], "value": [[[32.0, 27.0]], [[30.0, 8.0]], [[28.0, 4.0]], [[0.0, 1.0]], [[28.0, 3.0]], [[0.0, 1.0]], [[28.0, 2.0]], [[6.0, 1.0]], [[6.0, 0.0]], [[0.0, 1.0]], [[22.0, 1.0]], [[11.0, 0.0]], [[11.0, 1.0]], [[0.0, 1.0]], [[11.0, 0.0]], [[2.0, 4.0]], [[0.0, 2.0]], [[2.0, 2.0]], [[2.0, 0.0]], [[0.0, 2.0]], [[2.0, 19.0]], [[2.0, 5.0]], [[2.0, 0.0]], [[0.0, 5.0]], [[0.0, 14.0]]]}, {"children_left": [1, 2, 3, -1, 5, -1, -1, 8, -1, 10, -1, -1, -1], "children_right": [12, 7, 4, -1, 6, -1, -1, 9, -1, 11, -1, -1, -1], "feature": [0, 1, 1, -2, 0, -2, -2, 1, -2, 2, -2, -2, -2], "threshold": [46.78499984741211, 1.5950000286102295, 1.5399999618530273, -2.0, 38.02499961853027, -2.0, -2.0, 1.715000033378601, -2.0, 5.71999979019165, -2.0, -2.0, -2.0], "value": [[[33.0, 26.0]], [[33.0, 5.0]], [[5.0, 4.0]], [[0.0, 1.0]], [[5.0, 3.0]], [[5.0, 0.0]], [[0.0, 3.0]], [[28.0, 1.0]], [[19.0, 0.0]], [[9.0, 1.0]], [[0.0, 1.0]], [[9.0, 0.0]], [[0.0, 21.0]]]}, {"children_left": [1, 2, -1, 4, 5, 6, -1, -1, -1, 10, -1, -1, -1], "children_right": [12, 3, -1, 9, 8, 7, -1, -1, -1, 11, -1, -1, -1], "feature": [2, 2, -2, 2, 0, 0, -2, -2, -2, 0, -2, -2, -2], "threshold": [17.769999504089355, 1.1650000214576721, -2.0, 10.21999979019165, 35.385000228881836, 34.959999084472656, -2.0, -2.0, -2.0, 41.029998779296875, -2.0, -2.0, -2.0], "value": [[[34.0, 25.0]], [[34.0, 12.0]], [[0.0, 3.0]], [[34.0, 9.0]], [[23.0, 1.0]], [[4.0, 1.0]], [[4.0, 0.0]], [[0.0, 1.0]], [[19.0, 0.0]], [[11.0, 8.0]], [[11.0, 0.0]], [[0.0, 8.0]], [[0.0, 13.0]]]}, {"children_left": [1, -1, 3, 4, 5, 6, -1, 8, -1, 10, -1, 12, -1, 14, -1, -1, -1, 18, -1, -1, -1], "children_right": [2, -1, 20, 17, 16, 7, -1, 9, -1, 11, -1, 13, -1, 15, -1, -1, -1, 19, -1, -1, -1], "feature": [1, -2, 2, 1, 2, 0, -2, 0, -2, 1, -2, 2, -2, 1, -2, -2, -2, 0, -2, -2, -2], "threshold": [1.5299999713897705, -2.0, 17.769999504089355, 2.4550000429153442, 4.784999847412109, 21.90500020980835, -2.0, 34.204999923706055, -2.0, 1.625, -2.0, 2.4149999618530273, -2.0, 1.7350000143051147, -2.0, -2.0, -2.0, 47.045000076293945, -2.0, -2.0, -2.0], "value": [[[33.0, 26.0]], [[0.0, 8.0]], [[33.0, 18.0]], [[33.0, 13.0]], [[28.0, 3.0]], [[8.0, 3.0]], [[0.0, 1.0]], [[8.0, 2.0]], [[3.0, 0.0]], [[5.0, 2.0]], [[0.0, 1.0]], [[5.0, 1.0]], [[3.0, 0.0]], [[2.0, 1.0]], [[2.0, 0.0]], [[0.0, 1.0]], [[20.0, 0.0]], [[5.0, 10.0]], [[5.0, 0.0]], [[0.0, 10.0]], [[0.0, 5.0]]]}, {"children_left": [1, 2, 3, -1, 5, 6, -1, 8, -1, 10, -1, 12, -1, 14, -1, -1, 17, -1, -1, -1, -1], "children_right": [20, 19, 4, -1, 16, 7, -1, 9, -1, 11, -1, 13, -1, 15, -1, -1, 18, -1, -1, -1, -1], "feature": [2, 0, 1, -2, 2, 0, -2, 2, -2, 2, -2, 2, -2, 1, -2, -2, 1, -2, -2, -2, -2], "threshold": [18.02999973297119, 49.40999984741211, 1.5299999713897705, -2.0, 4.784999847412109, 23.014999866485596, -2.0, 2.4149999618530273, -2.0, 2.899999976158142, -2.0, 3.399999976158142, -2.0, 1.6350000500679016, -2.0, -2.0, 5.349999904632568, -2.0, -2.0, -2.0, -2.0], "value": [[[38.0, 21.0]], [[38.0, 9.0]], [[38.0, 7.0]], [[0.0, 3.0]], [[38.0, 4.0]], [[13.0, 3.0]], [[0.0, 1.0]], [[13.0, 2.0]], [[7.0, 0.0]], [[6.0, 2.0]], [[0.0, 1.0]], [[6.0, 1.0]], [[4.0, 0.0]], [[2.0, 1.0]], [[0.0, 1.0]], [[2.0, 0.0]], [[25.0, 1.0]], [[25.0, 0.0]], [[0.0, 1.0]], [[0.0, 2.0]], [[0.0, 12.0]]]}, {"children_left": [1, 2, -1, 4, 5, 6, 7, -1, -1, -1, -1, -1, 13, -1, -1], "children_right": [12, 3, -1, 11, 10, 9, 8, -1, -1, -1, -1, -1, 14, -1, -1], "feature": [2, 1, -2, 0, 2, 0, 2, -2, -2, -2, -2, -2, 0, -2, -2], "threshold": [13.994999885559082, 1.5299999713897705, -2.0, 49.334999084472656, 2.8550000190734863, 37.385000228881836, 1.9599999785423279, -2.0, -2.0, -2.0, -2.0, -2.0, 39.079999923706055, -2.0, -2.0], "value": [[[38.0, 21.0]], [[36.0, 5.0]], [[0.0, 2.0]], [[36.0, 3.0]], [[36.0, 2.0]], [[3.0, 2.0]], [[1.0, 2.0]], [[1.0, 0.0]], [[0.0, 2.0]], [[2.0, 0.0]], [[33.0, 0.0]], [[0.0, 1.0]], [[2.0, 16.0]], [[2.0, 0.0]], [[0.0, 16.0]]]}, {"children_left": [1, 2, -1, 4, -1, -1, -1], "children_right": [6, 3, -1, 5, -1, -1, -1], "feature": [0, 2, -2, 2, -2, -2, -2], "threshold": [47.78000068664551, 1.1650000214576721, -2.0, 18.649999618530273, -2.0, -2.0, -2.0], "value": [[[32.0, 27.0]], [[32.0, 7.0]], [[0.0, 4.0]], [[32.0, 3.0]], [[32.0, 0.0]], [[0.0, 3.0]], [[0.0, 20.0]]]}, {"children_left": [1, 2, -1, -1, 5, -1, 7, -1, 9, 10, -1, -1, -1], "children_right": [4, 3, -1, -1, 6, -1, 8, -1, 12, 11, -1, -1, -1], "feature": [0, 2, -2, -2, 1, -2, 1, -2, 0, 1, -2, -2, -2], "threshold": [38.470001220703125, 66.92999935150146, -2.0, -2.0, 1.6299999952316284, -2.0, 2.4550000429153442, -2.0, 45.119998931884766, 5.434999942779541, -2.0, -2.0, -2.0], "value": [[[35.0, 24.0]], [[30.0, 1.0]], [[30.0, 0.0]], [[0.0, 1.0]], [[5.0, 23.0]], [[0.0, 12.0]], [[5.0, 11.0]], [[4.0, 0.0]], [[1.0, 11.0]], [[1.0, 2.0]], [[1.0, 0.0]], [[0.0, 2.0]], [[0.0, 9.0]]]}, {"children_left": [1, -1, 3, 4, 5, 6, -1, 8, -1, -1, 11, 12, -1, -1, -1, 16, 17, -1, -1, -1, -1], "children_right": [2, -1, 20, 15, 10, 7, -1, 9, -1, -1, 14, 13, -1, -1, -1, 19, 18, -1, -1, -1, -1], "feature": [1, -2, 0, 2, 1, 0, -2, 1, -2, -2, 2, 2, -2, -2, -2, 2, 1, -2, -2, -2, -2], "threshold": [1.5399999618530273, -2.0, 47.560001373291016, 14.839999675750732, 1.5850000381469727, 36.994998931884766, -2.0, 1.5699999928474426, -2.0, -2.0, 2.899999976158142, 2.4149999618530273, -2.0, -2.0, -2.0, 17.769999504089355, 5.349999904632568, -2.0, -2.0, -2.0, -2.0], "value": [[[31.0, 28.0]], [[0.0, 9.0]], [[31.0, 19.0]], [[31.0, 11.0]], [[28.0, 3.0]], [[3.0, 2.0]], [[2.0, 0.0]], [[1.0, 2.0]], [[1.0, 0.0]], [[0.0, 2.0]], [[25.0, 1.0]], [[6.0, 1.0]], [[6.0, 0.0]], [[0.0, 1.0]], [[19.0, 0.0]], [[3.0, 8.0]], [[3.0, 3.0]], [[3.0, 0.0]], [[0.0, 3.0]], [[0.0, 5.0]], [[0.0, 8.0]]]}, {"children_left": [1, 2, 3, -1, 5, -1, 7, -1, -1, -1, -1], "children_right": [10, 9, 4, -1, 6, -1, 8, -1, -1, -1, -1], "feature": [2, 0, 2, -2, 0, -2, 1, -2, -2, -2, -2], "threshold": [17.46500015258789, 48.005001068115234, 1.0699999928474426, -2.0, 21.90500020980835, -2.0, 1.5299999713897705, -2.0, -2.0, -2.0, -2.0], "value": [[[33.0, 26.0]], [[33.0, 10.0]], [[33.0, 6.0]], [[0.0, 1.0]], [[33.0, 5.0]], [[0.0, 3.0]], [[33.0, 2.0]], [[0.0, 2.0]], [[33.0, 0.0]], [[0.0, 4.0]], [[0.0, 16.0]]]}, {"children_left": [1, -1, 3, 4, -1, 6, 7, -1, -1, 10, 11, 12, -1, -1, -1, -1, -1], "children_right": [2, -1, 16, 5, -1, 9, 8, -1, -1, 15, 14, 13, -1, -1, -1, -1, -1], "feature": [1, -2, 0, 0, -2, 1, 1, -2, -2, 2, 2, 1, -2, -2, -2, -2, -2], "threshold": [1.5299999713897705, -2.0, 47.560001373291016, 34.85000038146973, -2.0, 1.5950000286102295, 1.5699999928474426, -2.0, -2.0, 66.92999935150146, 2.899999976158142, 1.7199999690055847, -2.0, -2.0, -2.0, -2.0, -2.0], "value": [[[36.0, 23.0]], [[0.0, 8.0]], [[36.0, 15.0]], [[36.0, 4.0]], [[13.0, 0.0]], [[23.0, 4.0]], [[2.0, 2.0]], [[2.0, 0.0]], [[0.0, 2.0]], [[21.0, 2.0]], [[21.0, 1.0]], [[3.0, 1.0]], [[3.0, 0.0]], [[0.0, 1.0]], [[18.0, 0.0]], [[0.0, 1.0]], [[0.0, 11.0]]]}, {"children_left": [1, 2, 3, -1, 5, 6, -1, -1, -1, 10, 11, 12, -1, 14, -1, -1, -1, -1, -1], "children_right": [18, 9, 4, -1, 8, 7, -1, -1, -1, 17, 16, 13, -1, 15, -1, -1, -1, -1, -1], "feature": [0, 1, 0, -2, 0, 0, -2, -2, -2, 1, 1, 0, -2, 2, -2, -2, -2, -2, -2], "threshold": [47.48500061035156, 1.600000023841858, 36.994998931884766, -2.0, 41.45000076293945, 39.51499938964844, -2.0, -2.0, -2.0, 5.434999942779541, 1.8050000071525574, 21.90500020980835, -2.0, 2.8550000190734863, -2.0, -2.0, -2.0, -2.0, -2.0], "value": [[[32.0, 27.0]], [[32.0, 10.0]], [[4.0, 7.0]], [[2.0, 0.0]], [[2.0, 7.0]], [[2.0, 3.0]], [[0.0, 3.0]], [[2.0, 0.0]], [[0.0, 4.0]], [[28.0, 3.0]], [[28.0, 2.0]], [[15.0, 2.0]], [[0.0, 1.0]], [[15.0, 1.0]], [[0.0, 1.0]], [[15.0, 0.0]], [[13.0, 0.0]], [[0.0, 1.0]], [[0.0, 17.0]]]}, {"children_left": [1, 2, -1, 4, 5, 6, -1, -1, -1, 10, 11, -1, -1, 14, -1, 16, -1, 18, -1, -1, -1], "children_right": [20, 3, -1, 9, 8, 7, -1, -1, -1, 13, 12, -1, -1, 15, -1, 17, -1, 19, -1, -1, -1], "feature": [2, 1, -2, 1, 1, 1, -2, -2, -2, 1, 0, -2, -2, 1, -2, 1, -2, 0, -2, -2, -2], "threshold": [17.795000076293945, 1.5399999618530273, -2.0, 1.715000033378601, 1.5850000381469727, 1.5750000476837158, -2.0, -2.0, -2.0, 1.850000023841858, 23.660000324249268, -2.0, -2.0, 2.4550000429153442, -2.0, 3.2549999952316284, -2.0, 49.43499946594238, -2.0, -2.0, -2.0], "value": [[[34.0, 25.0]], [[34.0, 8.0]], [[0.0, 3.0]], [[34.0, 5.0]], [[21.0, 1.0]], [[5.0, 1.0]], [[5.0, 0.0]], [[0.0, 1.0]], [[16.0, 0.0]], [[13.0, 4.0]], [[2.0, 2.0]], [[0.0, 2.0]], [[2.0, 0.0]], [[11.0, 2.0]], [[6.0, 0.0]], [[5.0, 2.0]], [[0.0, 1.0]], [[5.0, 1.0]], [[5.0, 0.0]], [[0.0, 1.0]], [[0.0, 17.0]]]}, {"children_left": [1, 2, -1, 4, 5, -1, 7, -1, -1, 10, -1, 12, -1, 14, -1, -1, -1], "children_right": [16, 3, -1, 9, 6, -1, 8, -1, -1, 11, -1, 13, -1, 15, -1, -1, -1], "feature": [0, 0, -2, 0, 0, -2, 0, -2, -2, 1, -2, 0, -2, 2, -2, -2, -2], "threshold": [47.51500129699707, 21.90500020980835, -2.0, 38.470001220703125, 35.80000114440918, -2.0, 35.94499969482422, -2.0, -2.0, 1.5399999618530273, -2.0, 40.415000915527344, -2.0, 12.674999713897705, -2.0, -2.0, -2.0], "value": [[[35.0, 24.0]], [[35.0, 7.0]], [[0.0, 2.0]], [[35.0, 5.0]], [[23.0, 1.0]], [[12.0, 0.0]], [[11.0, 1.0]], [[0.0, 1.0]], [[11.0, 0.0]], [[12.0, 4.0]], [[0.0, 2.0]], [[12.0, 2.0]], [[7.0, 0.0]], [[5.0, 2.0]], [[5.0, 0.0]], [[0.0, 2.0]], [[0.0, 17.0]]]}, {"children_left": [1, -1, 3, 4, 5, 6, -1, -1, 9, 10, -1, -1, -1, -1, -1], "children_right": [2, -1, 14, 13, 8, 7, -1, -1, 12, 11, -1, -1, -1, -1, -1], "feature": [1, -2, 2, 1, 1, 0, -2, -2, 0, 1, -2, -2, -2, -2, -2], "threshold": [1.5299999713897705, -2.0, 17.795000076293945, 5.434999942779541, 1.715000033378601, 38.32499885559082, -2.0, -2.0, 50.31999969482422, 1.850000023841858, -2.0, -2.0, -2.0, -2.0, -2.0], "value": [[[31.0, 28.0]], [[0.0, 10.0]], [[31.0, 18.0]], [[31.0, 11.0]], [[31.0, 7.0]], [[19.0, 2.0]], [[19.0, 0.0]], [[0.0, 2.0]], [[12.0, 5.0]], [[12.0, 1.0]], [[0.0, 1.0]], [[12.0, 0.0]], [[0.0, 4.0]], [[0.0, 4.0]], [[0.0, 7.0]]]}, {"children_left": [1, -1, 3, -1, 5, 6, 7, -1, 9, -1, -1, -1, -1], "children_right": [2, -1, 4, -1, 12, 11, 8, -1, 10, -1, -1, -1, -1], "feature": [1, -2, 1, -2, 1, 2, 1, -2, 0, -2, -2, -2, -2], "threshold": [1.5299999713897705, -2.0, 2.0649999380111694, -2.0, 5.710000038146973, 17.46500015258789, 3.2549999952316284, -2.0, 49.97999954223633, -2.0, -2.0, -2.0, -2.0], "value": [[[30.0, 29.0]], [[0.0, 14.0]], [[30.0, 15.0]], [[23.0, 0.0]], [[7.0, 15.0]], [[7.0, 7.0]], [[7.0, 2.0]], [[0.0, 1.0]], [[7.0, 1.0]], [[7.0, 0.0]], [[0.0, 1.0]], [[0.0, 5.0]], [[0.0, 8.0]]]}, {"children_left": [1, 2, 3, 4, 5, -1, 7, -1, 9, -1, -1, -1, -1, -1, 15, 16, -1, 18, -1, -1, -1], "children_right": [14, 13, 12, 11, 6, -1, 8, -1, 10, -1, -1, -1, -1, -1, 20, 17, -1, 19, -1, -1, -1], "feature": [0, 2, 2, 2, 2, -2, 1, -2, 0, -2, -2, -2, -2, -2, 0, 1, -2, 2, -2, -2, -2], "threshold": [41.73000144958496, 66.92999935150146, 4.784999847412109, 3.759999990463257, 1.0350000262260437, -2.0, 1.7350000143051147, -2.0, 37.385000228881836, -2.0, -2.0, -2.0, -2.0, -2.0, 47.704999923706055, 1.7800000309944153, -2.0, 13.549999713897705, -2.0, -2.0, -2.0], "value": [[[32.0, 27.0]], [[31.0, 7.0]], [[31.0, 5.0]], [[9.0, 5.0]], [[9.0, 2.0]], [[0.0, 1.0]], [[9.0, 1.0]], [[7.0, 0.0]], [[2.0, 1.0]], [[0.0, 1.0]], [[2.0, 0.0]], [[0.0, 3.0]], [[22.0, 0.0]], [[0.0, 2.0]], [[1.0, 20.0]], [[1.0, 5.0]], [[0.0, 3.0]], [[1.0, 2.0]], [[1.0, 0.0]], [[0.0, 2.0]], [[0.0, 15.0]]]}, {"children_left": [1, 2, 3, -1, 5, -1, 7, 8, -1, 10, 11, -1, -1, -1, -1, -1, -1], "children_right": [16, 15, 4, -1, 6, -1, 14, 9, -1, 13, 12, -1, -1, -1, -1, -1, -1], "feature": [2, 0, 0, -2, 1, -2, 2, 0, -2, 2, 0, -2, -2, -2, -2, -2, -2], "threshold": [18.389999389648438, 48.005001068115234, 22.22499990463257, -2.0, 1.5399999618530273, -2.0, 4.144999980926514, 34.85000038146973, -2.0, 3.399999976158142, 36.114999771118164, -2.0, -2.0, -2.0, -2.0, -2.0, -2.0], "value": [[[31.0, 28.0]], [[31.0, 16.0]], [[31.0, 8.0]], [[0.0, 1.0]], [[31.0, 7.0]], [[0.0, 3.0]], [[31.0, 4.0]], [[13.0, 4.0]], [[5.0, 0.0]], [[8.0, 4.0]], [[8.0, 2.0]], [[0.0, 2.0]], [[8.0, 0.0]], [[0.0, 2.0]], [[18.0, 0.0]], [[0.0, 8.0]], [[0.0, 12.0]]]}, {"children_left": [1, -1, 3, 4, 5, -1, 7, -1, 9, -1, -1, -1, 13, 14, -1, 16, -1, 18, -1, -1, -1], "children_right": [2, -1, 12, 11, 6, -1, 8, -1, 10, -1, -1, -1, 20, 15, -1, 17, -1, 19, -1, -1, -1], "feature": [1, -2, 0, 2, 1, -2, 2, -2, 2, -2, -2, -2, 2, 0, -2, 2, -2, 2, -2, -2, -2], "threshold": [1.5299999713897705, -2.0, 38.404998779296875, 66.92999935150146, 1.7100000381469727, -2.0, 2.8149998784065247, -2.0, 10.344999551773071, -2.0, -2.0, -2.0, 14.005000114440918, 38.76999855041504, -2.0, 9.929999828338623, -2.0, 12.09499979019165, -2.0, -2.0, -2.0], "value": [[[29.0, 30.0]], [[0.0, 11.0]], [[29.0, 19.0]], [[25.0, 4.0]], [[25.0, 1.0]], [[23.0, 0.0]], [[2.0, 1.0]], [[1.0, 0.0]], [[1.0, 1.0]], [[0.0, 1.0]], [[1.0, 0.0]], [[0.0, 3.0]], [[4.0, 15.0]], [[4.0, 5.0]], [[0.0, 4.0]], [[4.0, 1.0]], [[3.0, 0.0]], [[1.0, 1.0]], [[0.0, 1.0]], [[1.0, 0.0]], [[0.0, 10.0]]]}, {"children_left": [1, 2, -1, 4, 5, 6, -1, 8, -1, -1, -1, -1, -1], "children_right": [12, 3, -1, 11, 10, 7, -1, 9, -1, -1, -1, -1, -1], "feature": [0, 1, -2, 1, 1, 2, -2, 0, -2, -2, -2, -2, -2], "threshold": [47.51500129699707, 1.5299999713897705, -2.0, 5.434999942779541, 1.600000023841858, 4.4649999141693115, -2.0, 41.45000076293945, -2.0, -2.0, -2.0, -2.0, -2.0], "value": [[[35.0, 24.0]], [[35.0, 7.0]], [[0.0, 3.0]], [[35.0, 4.0]], [[35.0, 2.0]], [[9.0, 2.0]], [[0.0, 1.0]], [[9.0, 1.0]], [[9.0, 0.0]], [[0.0, 1.0]], [[26.0, 0.0]], [[0.0, 2.0]], [[0.0, 17.0]]]}, {"children_left": [1, 2, 3, 4, 5, -1, -1, 8, -1, -1, 11, 12, -1, 14, 15, -1, -1, -1, -1, -1, -1], "children_right": [20, 19, 10, 7, 6, -1, -1, 9, -1, -1, 18, 13, -1, 17, 16, -1, -1, -1, -1, -1, -1], "feature": [2, 0, 1, 2, 1, -2, -2, 1, -2, -2, 0, 2, -2, 0, 0, -2, -2, -2, -2, -2, -2], "threshold": [13.994999885559082, 48.005001068115234, 1.715000033378601, 4.144999980926514, 1.5950000286102295, -2.0, -2.0, 1.5299999713897705, -2.0, -2.0, 36.635000228881836, 1.9949999451637268, -2.0, 34.885000228881836, 23.695000171661377, -2.0, -2.0, -2.0, -2.0, -2.0, -2.0], "value": [[[31.0, 28.0]], [[31.0, 10.0]], [[31.0, 7.0]], [[24.0, 2.0]], [[3.0, 1.0]], [[0.0, 1.0]], [[3.0, 0.0]], [[21.0, 1.0]], [[0.0, 1.0]], [[21.0, 0.0]], [[7.0, 5.0]], [[2.0, 5.0]], [[1.0, 0.0]], [[1.0, 5.0]], [[1.0, 2.0]], [[0.0, 2.0]], [[1.0, 0.0]], [[0.0, 3.0]], [[5.0, 0.0]], [[0.0, 3.0]], [[0.0, 18.0]]]}, {"children_left": [1, -1, 3, 4, 5, 6, -1, -1, 9, 10, -1, 12, -1, -1, -1, -1, -1], "children_right": [2, -1, 16, 15, 8, 7, -1, -1, 14, 11, -1, 13, -1, -1, -1, -1, -1], "feature": [1, -2, 0, 1, 1, 2, -2, -2, 1, 1, -2, 0, -2, -2, -2, -2, -2], "threshold": [1.5399999618530273, -2.0, 47.560001373291016, 5.434999942779541, 1.715000033378601, 18.649999618530273, -2.0, -2.0, 3.0649999380111694, 1.75, -2.0, 37.364999771118164, -2.0, -2.0, -2.0, -2.0, -2.0], "value": [[[32.0, 27.0]], [[0.0, 9.0]], [[32.0, 18.0]], [[32.0, 8.0]], [[32.0, 4.0]], [[22.0, 1.0]], [[22.0, 0.0]], [[0.0, 1.0]], [[10.0, 3.0]], [[3.0, 3.0]], [[0.0, 1.0]], [[3.0, 2.0]], [[0.0, 2.0]], [[3.0, 0.0]], [[7.0, 0.0]], [[0.0, 4.0]], [[0.0, 10.0]]]}, {"children_left": [1, 2, -1, 4, -1, -1, 7, 8, -1, -1, -1], "children_right": [6, 3, -1, 5, -1, -1, 10, 9, -1, -1, -1], "feature": [2, 1, -2, 0, -2, -2, 0, 1, -2, -2, -2], "threshold": [14.005000114440918, 1.5299999713897705, -2.0, 48.005001068115234, -2.0, -2.0, 39.079999923706055, 3.1549999713897705, -2.0, -2.0, -2.0], "value": [[[32.0, 27.0]], [[29.0, 6.0]], [[0.0, 3.0]], [[29.0, 3.0]], [[29.0, 0.0]], [[0.0, 3.0]], [[3.0, 21.0]], [[3.0, 2.0]], [[0.0, 2.0]], [[3.0, 0.0]], [[0.0, 19.0]]]}, {"children_left": [1, 2, 3, -1, -1, -1, 7, -1, 9, 10, -1, -1, -1], "children_right": [6, 5, 4, -1, -1, -1, 8, -1, 12, 11, -1, -1, -1], "feature": [0, 0, 2, -2, -2, -2, 1, -2, 2, 0, -2, -2, -2], "threshold": [40.415000915527344, 35.94499969482422, 64.90499973297119, -2.0, -2.0, -2.0, 1.7800000309944153, -2.0, 10.255000114440918, 51.040000915527344, -2.0, -2.0, -2.0], "value": [[[32.0, 27.0]], [[30.0, 1.0]], [[13.0, 1.0]], [[13.0, 0.0]], [[0.0, 1.0]], [[17.0, 0.0]], [[2.0, 26.0]], [[0.0, 12.0]], [[2.0, 14.0]], [[2.0, 1.0]], [[2.0, 0.0]], [[0.0, 1.0]], [[0.0, 13.0]]]}]}